{
  "weights": [
    0.06340195078040992,
    0.10822520374973654,
    0.16642223690755045,
    -0.000812333439906554,
    -0.07915954189628885,
    -0.006773543392623871,
    0.058592485023877344,
    -0.040422139843773026,
    0.01602488290624264,
    0.04244854347199506,
    0.17907611229308915,
    -0.003994520998814879,
    0.0649963295128127,
    -0.08997080645142767,
    0.08173358835096844,
    -0.03061187158849167,
    0.0741716457178325,
    0.19415209661881097,
    -0.06054311434184173,
    -0.04300792308569251,
    0.1400439155946117,
    0.06204557850676248,
    0.13489430373854575,
    0.005534724983649444,
    -0.025472592163054503,
    -0.027488791259139722,
    0.05581510665162909,
    0.11552688291110597,
    0.09356459827790717,
    0.10003192578801043,
    0.015776639497697295,
    0.11551820504063123,
    0.08909378376673002,
    -0.02475773662640604,
    0.08204395424145494,
    0.12266847589415711,
    0.0645375010524559,
    -0.845295210990981,
    -15.93218509121507,
    301.76315593727037,
    602.0134936198369,
    243.9030870734276,
    -20.331163621842613,
    470.65138115680725,
    1368.2292372006677,
    683.6823115459513,
    -0.09736462857382883,
    0.1363652095658736,
    -0.0824805645229491,
    0.18078882190009013,
    0.08150614921515262,
    0.08922527307425493,
    -0.0700875685877855,
    0.19190353545428665,
    0.038201063072224456,
    0.11831815015124306,
    0.13064912413471644,
    0.08591912908268468,
    0.14004034288462908,
    4.18965709840984,
    1.5051661062748987,
    -0.48213105059020683,
    -62.24899049050541,
    -148.62987377232886,
    -430.2270298242548,
    -734.2071939602544,
    -573.4221782450091,
    -546.2694247659429,
    -641.204383436836,
    -741.8164932606189,
    -967.5728539209773,
    -1166.7959744540278,
    -670.4375392016925,
    -904.0905098420568,
    -937.973630294678,
    -900.2601618702107,
    -834.8387367092234,
    -287.388124825214,
    -50.71765660970709,
    -10.698500719361611,
    -10.801841804589717,
    -0.0740140509995979,
    -0.07439004687017153,
    0.09333767670518109,
    -0.05940776293723402,
    0.15844403728838033,
    -0.060222430368382596,
    11.88129961765269,
    10.6389673566985,
    -100.0497883316626,
    -440.1709854022527,
    -724.9338856414391,
    -415.11131750910613,
    -1089.2144505224805,
    -1530.759628837718,
    -202.30570265109515,
    -835.9919185042122,
    327.2237920660767,
    -598.0173006081277,
    -102.70104739889905,
    -452.9219619208116,
    -136.67944818179404,
    -662.9458515160393,
    -501.35025196389086,
    -82.11411105243032,
    -1011.6226264795232,
    -724.1016935053256,
    -117.18525889323698,
    -76.06869445052777,
    -278.65922611422286,
    -75.5274445222783,
    0.014663029468104646,
    -0.026227132664999944,
    0.10634737119915283,
    0.1886182188901808,
    0.06255289530915417,
    -64.39585222340861,
    -349.6601265228398,
    -302.3626577927561,
    -265.6745118361045,
    -109.66392723604291,
    518.6814298868447,
    -423.8919811523598,
    657.6594917557215,
    -534.1541575577817,
    314.41447647314914,
    -599.9488409556058,
    635.8546036659211,
    -640.0629166839024,
    203.971512687713,
    287.28705515044646,
    -146.09968725102215,
    -66.24081131714364,
    -19.706872879100356,
    -29.17971211821604,
    -577.41882342919,
    -198.8886349344819,
    -198.51652583142464,
    -78.78859753509269,
    0.1403501299529745,
    0.1613245649023329,
    -0.025511630836862018,
    -25.975660409108,
    0.1031590449994072,
    -295.56353583238143,
    -599.8746566320339,
    828.484952256992,
    -396.7124486607562,
    95.18014448197465,
    -168.79415327939785,
    274.41282040265605,
    -90.39090044261658,
    -201.97430660581207,
    204.42195073555828,
    49.18867532507144,
    6.006237664246466,
    128.32672376224332,
    62.91038829342694,
    -108.68167888855305,
    -64.78885817375624,
    220.3351318238938,
    -146.44710395334823,
    -360.11445118738243,
    -93.9970293384042,
    -537.3268557959315,
    -778.4196100227082,
    -134.5913991632789,
    -195.01362410491225,
    0.14808761478283833,
    -0.525971822455137,
    -53.35092104241904,
    0.13274739930863075,
    -574.834211039067,
    -331.9663203445328,
    -219.52834427242936,
    -344.973562526248,
    490.8429555259885,
    -736.8335390483974,
    17.208351227362666,
    -153.74276782369495,
    -149.72733807382477,
    194.0922734135021,
    10.833923692167698,
    38.16110366510121,
    -137.17716253147776,
    111.41713218153279,
    95.10061009761017,
    89.77187791539828,
    -68.6953371624283,
    192.66049451629127,
    284.39067860245274,
    -130.34054862877056,
    -861.5001815326146,
    -1199.1740278058974,
    -875.3319909479251,
    -633.6159165436136,
    0.06859451836257327,
    -28.07524063032154,
    -1.2557931101859758,
    -15.03178061134252,
    -289.25490661446395,
    93.65367434806802,
    171.08638658802423,
    21.716273924174303,
    -499.2589302581512,
    160.64003562915073,
    94.17892519266385,
    266.2873752420571,
    -201.12825506230243,
    143.73522932933213,
    -10.938621989019225,
    28.391194121502387,
    -191.56668578316348,
    466.8665807802158,
    -151.4710601565561,
    526.7993419453209,
    -264.4497423497567,
    -103.26094089041706,
    -304.4248071557189,
    136.58446393122676,
    -344.4091250923163,
    -887.5336010724928,
    -713.6155639639117,
    -42.8695416935901,
    0.12899795385732904,
    -0.7869932076507338,
    -14.935122318065481,
    -103.63088863260118,
    -304.49420309052726,
    -474.75132075421976,
    119.28480448130477,
    -238.827587724984,
    114.3939460829202,
    15.208004053493953,
    -265.8841230303031,
    -218.68039266772877,
    371.652950231166,
    -310.7902828720464,
    297.51650795455373,
    -27.478089968663337,
    648.7216071492683,
    -89.49872199378234,
    331.17799450713085,
    -262.01421456980916,
    274.68395128219464,
    -4.932224340241696,
    298.5876000026538,
    -325.9538801185781,
    -500.19743590239045,
    -1552.125988725777,
    -644.212173157166,
    -55.852212032379676,
    0.003959844256533326,
    -7.486035161926282,
    122.28395255779965,
    -838.3688881159784,
    -782.7153389773513,
    -324.8373636184717,
    309.4860268822065,
    -176.69251803903225,
    40.660113873777604,
    104.29386355983051,
    389.60988139391594,
    -210.0079444964149,
    -238.42727972192498,
    489.9080253859701,
    12.235329263119878,
    -210.3867611925181,
    99.23562744949551,
    127.90618085925482,
    72.84308317269458,
    329.5756025317388,
    163.77342392355885,
    -139.3418536610558,
    -432.638302988865,
    234.09395372388522,
    -230.86206139638014,
    -1485.298910972085,
    -1101.3942342545058,
    0.09456940048823681,
    -0.04306560629309436,
    -3.1278977330867974,
    749.356715616857,
    -564.2170850048399,
    322.3375968697458,
    161.74877953571104,
    -111.57389444722189,
    417.1010016826174,
    -224.43888488731986,
    -97.06332086828905,
    -257.61721219169885,
    435.19719989474135,
    6.113095060757811,
    -257.9217546649719,
    89.53986635575578,
    14.816403983365298,
    186.86726408070942,
    85.57365717295993,
    395.62794244154725,
    -508.5113295224342,
    83.44907253355001,
    80.06008268770165,
    555.9404850373193,
    183.40157300479302,
    -127.9737098381103,
    -864.6922087271079,
    -937.6764104667119,
    0.14319940567207531,
    0.030335911640051783,
    -0.029931632013338955,
    -138.46049244429625,
    326.37484210864164,
    -421.9730832384218,
    -406.99731245099105,
    240.71243549489844,
    32.21639347939095,
    38.91292599964627,
    -170.99138512370394,
    -112.26484297833629,
    59.03276190805319,
    -440.80852435383963,
    262.0970529900922,
    -483.11780220474304,
    -241.76552419980914,
    -180.65151057849712,
    138.48502575409998,
    -340.97407874792304,
    559.7548768606409,
    10.214313935355465,
    97.14947322871913,
    -149.609808602628,
    120.67056055289316,
    -247.6168488407406,
    -1683.4479628001786,
    -870.5969483445444,
    -9.15180890781194,
    -0.05643888132386471,
    -1.981206144295875,
    -70.0125000531247,
    157.0953548968561,
    -1112.4794580392484,
    285.3863585138733,
    -60.87690281904862,
    -271.19168627791703,
    -42.963546831750314,
    115.47135187194726,
    -72.9319924920292,
    148.96610441104605,
    302.65968924634853,
    -191.1025953106216,
    -317.5935853127772,
    -348.20442366165366,
    -190.9132036924234,
    -153.25174843073637,
    -116.36070701473199,
    -200.4738663231822,
    372.25765917113716,
    53.3126937724824,
    62.25303302710938,
    -273.8539533119007,
    537.9944114999257,
    64.52810817023223,
    -526.29900111339,
    -12.559612818702464,
    0.015644091690699857,
    -2.085341097465853,
    -18.157293464485022,
    -164.4036487165033,
    945.4456696682206,
    -557.556219084958,
    532.3632909330641,
    150.24063352894794,
    285.2202708373348,
    138.5648450480462,
    242.9577862714765,
    -213.82934231126876,
    6.750667669754009,
    -355.67074120484295,
    -338.68141541335046,
    -451.0642142901494,
    -282.2658235920752,
    24.333418468989056,
    67.13489703625267,
    -84.20600188424748,
    -475.7927428001494,
    -205.78129225046277,
    537.913317940276,
    185.27665759602044,
    -263.5582002393058,
    443.3775890524551,
    -112.97347374775174,
    -34.8043936050439,
    0.12787842953234285,
    -4.354274610411504,
    -159.59159418849848,
    -881.3436685792618,
    -474.83028318999044,
    518.6404641063983,
    -50.681310336572864,
    352.9891454043666,
    -151.78735874147148,
    202.5337247089685,
    -304.43662412277513,
    146.07639572472524,
    -12.55810107480428,
    61.7338384113573,
    -921.6969632012168,
    -1.343269385943282,
    -517.6303427477089,
    159.27023959083587,
    -6.747408114115132,
    -173.67640767755964,
    409.77619522637065,
    299.31522220948057,
    -222.28013527657762,
    388.14676655294,
    -260.7822548736949,
    486.88018633977754,
    -311.740956661884,
    -11.179872248725323,
    0.19109477249894044,
    0.04952521394883841,
    -197.49920678021616,
    -844.2523608119864,
    152.7694449814048,
    178.11317791101766,
    -384.4481693736611,
    354.66309531139274,
    328.9624005263094,
    158.94982731398747,
    360.10244194744837,
    -337.2526028172025,
    31.014867868534417,
    -206.64495336749985,
    -1067.6573685908477,
    115.97656697685963,
    -374.84645316516594,
    -227.1234125141883,
    -39.40593657451052,
    -80.68733705850701,
    -62.5536097180728,
    -97.20457687711534,
    112.49513138975428,
    -40.58007003935883,
    205.63598102018895,
    -293.23219376217713,
    -536.8727830822363,
    0.1618396828873754,
    0.18328965615147955,
    -0.08290736851209657,
    -26.474804273776787,
    -831.0446277484726,
    -353.3139385752218,
    145.5575753280047,
    -51.10885005012203,
    176.9720353084993,
    16.133901034755297,
    234.8524274689065,
    265.9863452922493,
    348.16636871547666,
    -152.05329738186293,
    -910.5983875994303,
    -385.5025198302478,
    -65.69372016128712,
    -146.30146132029847,
    207.47178095912685,
    -259.7028517943238,
    33.077006406208454,
    30.078959166098592,
    290.8362265703512,
    -488.24427854224217,
    -111.14581004670286,
    -239.99638537387054,
    -938.8132798903894,
    -901.0878268222058,
    62.065850171372446,
    0.1313194610942797,
    0.09924809229258802,
    -37.50970984995294,
    -348.71834658705046,
    101.0607102430273,
    239.91967457801124,
    156.62181202054376,
    -18.533118184912006,
    -3.410015689229338,
    -146.57517144257204,
    250.61739050202712,
    -327.73728329826713,
    158.6733250019147,
    -584.4561377000095,
    -254.42148906558566,
    -164.9489819299734,
    -44.135321240686224,
    186.6535971120828,
    -234.132881912859,
    16.696421632879026,
    228.6232185957146,
    -444.6093462566959,
    886.5046763544754,
    -88.94671072110559,
    59.12058514075069,
    -382.1539512239216,
    -179.34478234101744,
    462.076958483289,
    -0.031044472074765725,
    -0.0010331826347720202,
    -51.96067405963433,
    -845.4324068851743,
    148.30201513374718,
    -237.54611167857723,
    -122.2952518179815,
    -108.32888244301837,
    187.5350478971884,
    206.7178967936521,
    90.13028980532204,
    169.3071597550679,
    -73.41871517297919,
    -405.404110117565,
    -462.5528585610292,
    -12.6123883281968,
    -365.3996735069215,
    -31.94275597394548,
    -142.84288179382563,
    -19.146582281857132,
    -272.9697913823398,
    16.361996457097465,
    -372.29804498826655,
    -147.3165065561568,
    170.48579210777896,
    -258.7117757136282,
    -391.46981575437854,
    -204.9303367416209,
    0.14364453533523328,
    72.76042949673001,
    -13.304401365507324,
    -928.9489639852848,
    -636.0617925701002,
    -57.6784360176297,
    312.8007568778718,
    -173.63173521912512,
    236.47988142768466,
    -219.8219180263937,
    99.7798246692486,
    -211.46430874468393,
    543.4956884931017,
    -548.0459033643907,
    -16.000282639933303,
    -218.49526874733306,
    -123.01820820126228,
    -81.12988264225781,
    117.58559374342937,
    -345.3306589796083,
    111.14192138447092,
    5.644972210838891,
    432.05523855370507,
    -532.2786390768352,
    -90.52343495270316,
    -608.8598357365894,
    -155.8499823624149,
    -53.657452897846596,
    0.053618169070385996,
    183.32468615399864,
    -182.54374244962284,
    -454.17016177836643,
    484.7414788328585,
    -97.03567049286094,
    -320.7342919650091,
    94.66650375561692,
    -50.70217815373269,
    -312.9267574138682,
    315.8541499925739,
    258.6275118925172,
    140.6653035899578,
    248.88690891450923,
    -377.81965658303125,
    307.34988018593003,
    -480.88882114675835,
    -70.26938184495035,
    258.7897076278598,
    -66.74969723373626,
    -93.164735991402,
    -189.3634447929836,
    13.200902358056753,
    -186.9596386992275,
    -186.24380593575523,
    -594.5154521712826,
    -28.24465344191847,
    -0.06606669055490912,
    -0.07276237782538854,
    -0.08554283628719218,
    -589.0166537551996,
    -40.023458720352664,
    -168.6891608690153,
    0.6964264261948472,
    112.64406624446909,
    33.85428564451176,
    -295.93365890288203,
    363.6357970281705,
    166.71706374815807,
    178.88724649004007,
    46.45677706016906,
    38.34743342263602,
    -340.73418646038675,
    12.587800365137792,
    330.0233242134932,
    -748.3515626124956,
    -54.096681535527885,
    -365.28067867763104,
    -211.44848853172996,
    -534.222869321795,
    370.9812311318002,
    -836.8008328468542,
    43.31482612895093,
    -278.64764270095685,
    553.4114413444921,
    -0.02181027077942392,
    0.0814162730913634,
    -0.04177198137978103,
    -112.54100507730689,
    -234.69274060457502,
    -682.737522061488,
    8.002859194626138,
    192.90718807480621,
    -158.84005123945522,
    53.60862854126026,
    3.0642277135601024,
    28.70553537556464,
    42.66294506573209,
    -373.3419360779786,
    737.546662765099,
    -282.46988936950106,
    -122.69956573615273,
    -211.8780510554549,
    433.71747659015045,
    -388.7250789654012,
    193.03697089222146,
    204.55842205368558,
    -18.6109923784123,
    338.0503576364265,
    50.66008822807428,
    -447.5814479538431,
    -108.36157505990491,
    73.48806813570906,
    0.06302476856516329,
    0.005583441123098054,
    0.13863138584353318,
    -5.6356996952304215,
    -107.89710150058785,
    -1147.6316311278333,
    83.30941800490517,
    -251.71918692201595,
    497.12382759165365,
    -177.60140307160972,
    268.6701584233867,
    132.53986891980855,
    169.20139393721036,
    -12.857747522179572,
    -35.101810346885244,
    -9.25367102644013,
    40.52959557650059,
    -324.3194132609504,
    550.0259277008223,
    -620.819913517122,
    -310.9654274263466,
    -855.3586417893025,
    -355.6756588899713,
    230.3192930691685,
    -403.9455086665714,
    -578.5868028438754,
    -64.34708167541142,
    -5.926165709122181,
    0.14237568619137794,
    0.14038948303170998,
    0.11112675700120223,
    -59.73928319628817,
    -81.66955884137595,
    -209.87774850523255,
    372.73312116997704,
    -393.0108907098117,
    -253.3331590727196,
    -19.04370782197492,
    188.94704441753876,
    -20.84006807540073,
    -575.5172808879352,
    403.582740286256,
    -67.00073899914985,
    58.98755448244653,
    86.67192402056035,
    -573.5067233611884,
    201.2777656860579,
    14.606645013126776,
    -485.44564973952976,
    -599.4368167927415,
    -401.4036762647765,
    -438.9830466605345,
    -886.0532737112478,
    -152.75045290726845,
    -0.027270892367788666,
    0.15076051512717312,
    0.17838159233246328,
    0.14383379722078604,
    0.1765656670168251,
    -0.02979348259279066,
    0.1183754479238528,
    -258.9761252268858,
    -607.8929301028005,
    -1100.884656161418,
    -1254.7132376395068,
    -830.0795659890948,
    -534.7651980504437,
    -1244.9341463279577,
    5.888214191649929,
    -981.5583207296455,
    -838.3641801690472,
    -971.7144199701264,
    -1608.0813283823093,
    -1103.8386770949826,
    -1398.821640479344,
    -1944.4537911242032,
    -966.4786717377468,
    -866.0817381381081,
    -800.0918281759131,
    -576.2766285103828,
    -324.84973399596674,
    -37.20115722618134,
    -0.08467035630229702,
    0.17224591299304995,
    -0.0380485481393932,
    -0.017113790207604535,
    0.03562986370477039,
    0.06634830916289691,
    0.09215716164661686,
    0.04392981551669267,
    -130.80990611404596,
    -260.63096777165526,
    -415.4515683918546,
    -480.5881294142762,
    -800.2744495416687,
    -938.7474760262859,
    -986.2473544427246,
    -765.9088845830669,
    -795.9310731277176,
    -673.8336398802998,
    -1115.8385051417936,
    -1059.8159324969627,
    -560.9584723607724,
    -448.2463102582347,
    -55.65836107893008,
    -373.783955346462,
    -583.1055400864099,
    -312.41366679414153,
    -33.403902534614446,
    -0.07902230077825309,
    0.16154702419896974,
    0.1077135767025875,
    0.13333917645037863,
    -0.02463780542118879,
    0.1357975888886167,
    0.08971309975382663,
    0.05853011436407948,
    0.13888312775248482,
    -15.976863679619571,
    -68.52133046359499,
    -45.06367750036336,
    -26.8718586479089,
    -106.20061597459696,
    -51.20633396634675,
    -32.23307608214803,
    -28.787719429311835,
    -72.81028723267819,
    -140.12599232858688,
    -269.10288225351565,
    -202.8790468229321,
    -56.92398839954768,
    -66.09629623196525,
    -9.538580274987979,
    -17.68564391781726,
    -112.53988731818079,
    -354.81876647288675,
    -81.55068211387605,
    0.1989566064562794,
    0.0956193512705599,
    0.050717461027331906,
    -0.08731497475374238
  ],
  "bias": -455.80173451644185
}