{
  "weights": [
    0.06340195078040992,
    0.10822520374973654,
    0.16642223690755045,
    -0.000812333439906554,
    11.260840458103713,
    17.84322645660738,
    77.54859248502389,
    82.76957786015623,
    14.296024882906243,
    0.04244854347199506,
    0.17907611229308915,
    8.116005479001187,
    29.044996329512816,
    31.970029193548577,
    31.02173358835097,
    29.369388128411508,
    26.674171645717834,
    13.634152096618813,
    -0.06054311434184173,
    -0.04300792308569251,
    0.1400439155946117,
    0.06204557850676248,
    0.13489430373854575,
    0.005534724983649444,
    -0.025472592163054503,
    -0.027488791259139722,
    0.05581510665162909,
    0.11552688291110597,
    0.09356459827790717,
    0.10003192578801043,
    0.015776639497697295,
    0.11551820504063123,
    17.939093783766733,
    48.065242263373605,
    89.15580866012382,
    89.08306063275693,
    91.57292965791518,
    181.82697929881297,
    -47.515087051999494,
    -56.1092362195927,
    -31.967722066437894,
    -78.73761880892575,
    -67.20041852380339,
    -66.36501100005576,
    114.16798229870551,
    141.76729193810687,
    211.6866745871125,
    205.57154168015413,
    29.7968135531241,
    0.18078882190009013,
    0.08150614921515262,
    0.08922527307425493,
    -0.0700875685877855,
    0.19190353545428665,
    0.038201063072224456,
    0.11831815015124306,
    0.13064912413471644,
    0.08591912908268468,
    0.12247171543364868,
    5.319264941547097,
    17.9551661062749,
    89.3978689494098,
    147.56461735263193,
    -54.877912988014984,
    -13.632872961509715,
    -7.634095921038609,
    -87.22551157834259,
    -202.4706012365324,
    -64.19438343683383,
    -5.801356005718221,
    -71.23438333274171,
    -55.98244504226178,
    42.97226471987904,
    -99.5058431753888,
    125.00409519551692,
    195.43199499253768,
    187.85165544763865,
    169.09505164537336,
    -7.982793864609019,
    -1.6528536605380801,
    -1.4836065104720693,
    -0.0740140509995979,
    -0.07439004687017153,
    0.09333767670518109,
    -0.05940776293723402,
    0.15844403728838033,
    -0.09892831272132377,
    17.624044715691895,
    73.41935951356123,
    173.6713489232397,
    103.12317146049287,
    -80.73404250418204,
    -139.17214103851617,
    85.6545690853648,
    249.3365280250315,
    -53.77887912168066,
    -52.31062438655216,
    -41.33114911039319,
    98.2024248820664,
    109.64326632658866,
    58.777489059573554,
    -132.8533305347341,
    -16.763224065053343,
    -42.04511470898932,
    43.86859482992387,
    135.42070685380972,
    18.097875122120474,
    -12.39223928539411,
    -1.771243470135594,
    0.04096996420855403,
    0.14255547772171237,
    0.014663029468104646,
    -0.026227132664999944,
    0.10634737119915283,
    0.1886182188901808,
    17.875768581583664,
    132.56026542364992,
    76.35904994774907,
    -181.37822642020723,
    -43.35176673806795,
    48.083680607095495,
    12.287704396648346,
    104.12076394567944,
    -2.6049396168192556,
    -91.26333402837665,
    -166.7589352915628,
    -263.9902919360128,
    118.34240758749588,
    157.77429900234296,
    -28.717820645618453,
    123.29627083671181,
    -28.69211862356869,
    -31.84857602302587,
    88.25646045423207,
    168.533229058255,
    -21.138980291934647,
    -7.069968267816074,
    0.5154349528887802,
    -0.038597535092735474,
    0.1403501299529745,
    0.1613245649023329,
    -0.025511630836862018,
    -4.60836629146094,
    -21.13566448441237,
    54.516895540167866,
    -220.1545782006644,
    -131.58014578222247,
    -19.433860425462175,
    -101.6351496356712,
    208.85392515197296,
    -11.351610969885018,
    2.0036093613066335,
    -62.280385037182626,
    207.81379387279657,
    101.70844003095262,
    -84.29348782594418,
    360.09590023282294,
    -63.97874896146764,
    69.70577209184091,
    190.14976927722714,
    -144.60698582316274,
    -78.34259414942804,
    95.00523508713175,
    -36.08342149526752,
    -25.48767932535214,
    -5.2031786501566355,
    -1.2166932809260378,
    -0.10123194804944602,
    0.14808761478283833,
    -5.775971822455137,
    -69.85747006202679,
    -35.917801620299215,
    32.363083078579855,
    -201.73777132492506,
    11.738479256984307,
    -26.895209585064446,
    -95.37739741518375,
    -168.3734214013499,
    80.02552769794906,
    105.24899688218541,
    120.23219133792058,
    40.72968517822113,
    -56.746546896063855,
    25.91851542980625,
    34.99044531166823,
    -39.38290703415309,
    126.16413950937374,
    59.34411320951652,
    20.086074602278664,
    37.10676902609951,
    144.41126683773834,
    -102.83329372681138,
    -51.85547565027299,
    -22.012851335307907,
    -13.157363496944438,
    -2.720465563221797,
    0.06859451836257327,
    -17.678730826399967,
    -107.05296958077423,
    -31.859780611342583,
    129.06976005220108,
    -133.71236486761774,
    17.672465019399453,
    -82.18129470327574,
    -156.53014594442425,
    226.1325846487497,
    -96.46758461125437,
    -21.23254632656569,
    -85.01225506228776,
    79.72997442737402,
    -49.34473963607465,
    92.28390000385733,
    34.86080441291934,
    128.94363960373698,
    68.23341043168269,
    158.7206752786485,
    -138.30013450662074,
    192.66364734486993,
    -122.40394441061675,
    53.82167961750065,
    -112.88673293545459,
    -35.82191479798154,
    -16.458662003127714,
    1.7830465417040149,
    0.12899795385732904,
    -17.764601050787988,
    -143.56273016120272,
    63.07562117132071,
    -6.201144266997641,
    140.4440910104864,
    95.56743193228623,
    -150.4368034112653,
    -56.77554411315553,
    -61.99211359357044,
    -99.58690734403505,
    -59.723569138321835,
    -153.4324223178453,
    53.150697520105865,
    31.978782464361018,
    237.6662629725165,
    222.13584244336673,
    -77.09115336632402,
    42.962739605172025,
    0.617001116466055,
    183.63179441945618,
    140.30103056171393,
    -260.2943215659751,
    199.633296352008,
    -128.68327903964675,
    -107.55740049049243,
    -25.984251588538903,
    -1.795741444144369,
    0.003959844256533326,
    -67.93501555408315,
    -60.25106705004325,
    -92.85186850813409,
    -10.484123291071915,
    68.12342069525732,
    114.661752372403,
    116.39556039231014,
    24.63862367770058,
    -74.34531291075307,
    115.1508617860801,
    -95.55519939837588,
    -89.53947580030919,
    55.1605351899225,
    -138.17984720745838,
    34.44331723884418,
    78.14009803774337,
    85.65143576122084,
    71.53614199621933,
    8.753249590574281,
    84.0431494137686,
    -7.9754615041962165,
    -28.291126518280024,
    60.9405811748592,
    11.621232721267505,
    -111.18518548190738,
    -14.518508764308873,
    -0.4193129524529397,
    -0.04306560629309436,
    -28.575505576224053,
    16.64310777371866,
    -147.04151637738715,
    46.35889098739273,
    -35.70502438586206,
    3.7347722194466444,
    -20.025664984041065,
    24.50005628915209,
    30.539267367005497,
    -101.94791807405484,
    98.94931754182991,
    -12.159650037278883,
    -122.01414682180331,
    -36.454094428559436,
    32.36581574807313,
    101.15020525718155,
    76.82393168277433,
    -8.048057558425889,
    136.0656900854191,
    132.16358233745837,
    -31.472152606409253,
    100.12683797849719,
    -34.266583857947275,
    39.36801565208574,
    -38.45420872711391,
    -15.430802623572868,
    0.14319940567207531,
    0.030335911640051783,
    -12.769657122209415,
    16.06299775178217,
    -243.627197107043,
    11.05460303609333,
    13.738099313713054,
    52.876906083139055,
    143.65035426368436,
    18.59727894083041,
    55.906889386100296,
    -10.223509645007063,
    61.662840339426246,
    79.98790701874054,
    -447.54263328431716,
    0.6549428933379304,
    -94.52615165076851,
    138.46311687247922,
    -23.61218993217471,
    212.61858791872226,
    8.949033723390464,
    61.82243158241921,
    56.67629675813535,
    61.34960316208283,
    15.474560552896815,
    90.30773939455484,
    67.92403719981623,
    -5.005497364151633,
    -0.34141675094919366,
    -0.05643888132386471,
    -15.163441438413514,
    -43.36720593547766,
    -23.9625274560849,
    -1.289301176489677,
    72.28933890603645,
    28.782940318209203,
    84.78549019267845,
    -51.81429192978568,
    53.67178324449164,
    60.22255652756717,
    -102.06542500071528,
    0.007963756170509843,
    -209.202948251792,
    -291.07538923432804,
    -150.84148248517533,
    -266.392419378723,
    87.35774176534531,
    14.9233322009545,
    21.836800343481656,
    9.584914073123436,
    166.16614475285527,
    95.94938596829249,
    -7.81414939033126,
    30.65307816659477,
    89.98038268003627,
    -2.023157976135247,
    -0.446867720663246,
    0.015644091690699857,
    -14.63757639158351,
    -69.37588169977906,
    -16.691295775326278,
    -36.37515386117842,
    57.06931032680607,
    142.5881928938389,
    67.5280845093368,
    53.160937504018264,
    55.42076661667191,
    -51.519311767728,
    149.52391259071973,
    -77.71599899690786,
    -297.379407871483,
    -106.63992521727505,
    38.23358963142407,
    -45.584843199912214,
    -5.201914864341397,
    -80.95655394413743,
    94.8707432137888,
    -101.18623299619978,
    -37.98882166221608,
    138.30061205791858,
    -140.2870286784852,
    31.80227034893211,
    100.70919689559548,
    -0.651748257555645,
    -0.056942624651743164,
    13.847878429532344,
    -14.720313826097783,
    76.66856267424657,
    -1.3360607361265635,
    -62.127028288029585,
    -8.873222168106611,
    94.49841515361975,
    58.27761599262854,
    147.27926870949398,
    -26.22654980083707,
    93.01541509290338,
    -185.3908983928862,
    82.9386440232345,
    -248.95745570628696,
    -223.90100241692264,
    -162.79703409182724,
    -174.30038196339345,
    -45.80917217386771,
    38.167886003535536,
    -8.527741010896904,
    90.60995993227279,
    21.346594758498895,
    263.42762942930267,
    -135.7296648196079,
    74.41096081258513,
    104.73618633978,
    -0.32879979913894064,
    -0.04987224872531958,
    -8.41890522750106,
    2.6395252139488363,
    118.76875400409756,
    -4.308635321788139,
    -39.494202077417064,
    -11.634586794852003,
    6.384614940090847,
    -68.84843410033464,
    189.64647895769784,
    123.61355280419251,
    -38.26920511132175,
    257.2590442416572,
    -142.1810537000948,
    -303.7462082694687,
    -220.84238819869654,
    -35.414766356471794,
    -116.73119826319851,
    -137.39521643575736,
    10.362141856861673,
    42.93101588266829,
    120.1183902819273,
    8.99118782876852,
    128.19077844857557,
    21.493733882210606,
    30.714765333917725,
    47.28953172802125,
    -0.11909680772660891,
    0.1618396828873754,
    -50.21671034384852,
    17.767092631487905,
    55.302489843870305,
    89.36039185937368,
    -163.82805622227684,
    311.6266733672225,
    -32.23630103051279,
    86.94983923007885,
    1.72350887789475,
    129.5721529591392,
    -27.7462821587266,
    87.4910353821744,
    -171.87866993090046,
    -245.48281897200945,
    -14.739696300852211,
    -56.81003388677701,
    -119.40691230070533,
    -81.12147394284136,
    -91.3311655198118,
    -4.142405358497007,
    -20.0879820103703,
    51.76673637428471,
    -256.08749422849985,
    -46.456202203565084,
    -21.07481674642059,
    22.6364455998043,
    -0.6498268222046057,
    -0.09414982862766996,
    -52.78868053890572,
    -18.19024210378585,
    62.78134897357649,
    -29.6251309007749,
    -116.8407799530563,
    111.75928242114327,
    98.18032182447327,
    83.67209750136874,
    -21.70527059118942,
    -138.42223026609,
    37.19919442360748,
    53.53954023116823,
    -144.5757338216101,
    -149.3490396608443,
    -167.64180279108567,
    5.667096501391992,
    -39.99818398578639,
    21.175244170928142,
    -43.10645054030144,
    66.15457849563549,
    4.256473497691079,
    43.70186942960233,
    82.0921273348316,
    -6.10541660345932,
    -72.17251289846543,
    21.45369583490492,
    -0.3385862625862316,
    2.402605542113223,
    -52.74104447207477,
    -53.551033182634775,
    55.68916907762058,
    7.111318605018471,
    -136.08382800350935,
    114.46824126259673,
    -65.43823221014014,
    91.96143128247445,
    -53.309697200845946,
    102.91421051915367,
    50.6601721582681,
    86.56414014722073,
    -251.7389112514324,
    -43.197208156761604,
    -36.67423111003434,
    -109.18493734781732,
    -138.602144095148,
    0.21551853585805653,
    4.015471147353357,
    -60.37630777205065,
    -20.294771774499242,
    -75.63859177819504,
    -6.351221458849875,
    -72.24576145811619,
    -57.76883534320278,
    20.72493016872478,
    -0.6054628132019939,
    -0.24484654554249147,
    -23.37635546466477,
    -52.49674697385845,
    23.486226085473202,
    -97.68468947548844,
    16.894364292634968,
    -157.0946320960706,
    273.6331490347396,
    -104.79346070931585,
    -25.540549944852,
    86.03196432653412,
    -60.643704742517045,
    110.28561282394959,
    22.138708100947337,
    10.500841733673866,
    84.181246771813,
    -130.3043275708816,
    9.23896826932813,
    26.09474480872348,
    -62.937818021269536,
    -82.55614917567918,
    181.21686256092713,
    -22.409106220533776,
    -80.12570262276877,
    -155.50487437095123,
    16.935349361020926,
    31.195183871253274,
    -0.2635902055521939,
    0.10254710215341273,
    0.053618169070385996,
    -50.77205894404092,
    -5.165938528054368,
    -114.19800491562454,
    -40.51710940243978,
    -47.77818029678579,
    6.624962936982973,
    57.88603316737645,
    -225.53555070272347,
    98.6855955273325,
    160.1104637180549,
    -233.018174382003,
    190.81165653108863,
    -61.63007147762154,
    15.841127730737277,
    -120.05145314739775,
    -139.2698799702599,
    -15.571656354747796,
    -99.69950805841151,
    73.87398904077136,
    -164.7316379521908,
    82.78475128544164,
    -112.71866626938996,
    -22.65042301295061,
    4.464468574049224,
    29.81043018165896,
    -0.1054769713302323,
    -0.06606669055490912,
    -0.07276237782538854,
    -36.29558205197347,
    -71.14155571598397,
    -36.90145872035226,
    -34.92821969254383,
    89.67905387718066,
    76.68575251898486,
    -155.77132219860692,
    30.975674430450045,
    53.92367938115858,
    -102.81340684005829,
    -51.851969196235075,
    109.38293392291739,
    96.44194322655511,
    -42.9165786172324,
    -111.56008198779834,
    34.80614774290898,
    160.41561385807023,
    -152.03326977083663,
    -216.3184825992052,
    36.68366833101711,
    -6.115143831600712,
    -46.814180632896466,
    -66.03495049391458,
    6.637022207382345,
    -55.48709368134899,
    2.2698727170406934,
    -0.011104388426482743,
    0.0814162730913634,
    -0.11479158922291827,
    -34.32767174397359,
    -67.12838766339844,
    -14.6890906889406,
    -63.556081981845466,
    194.7485998395007,
    -106.47977672965267,
    -216.85846949796638,
    80.94540418414122,
    74.47400596380118,
    66.66361173240519,
    -41.05358313678408,
    38.036388255234336,
    -158.80624231066554,
    13.460591126591877,
    -198.7822863495772,
    -110.67389595885662,
    -45.72535347520528,
    -91.91326440189896,
    -8.24487206396011,
    -61.941541398021684,
    -182.18525020670972,
    -14.017990203299028,
    -81.28380089502079,
    -52.5990260402971,
    0.02375441021873824,
    0.08278947444751622,
    0.005583441123098054,
    0.13863138584353318,
    -0.602287930524539,
    -29.573140716273876,
    -75.9555134807665,
    31.844045455884228,
    -56.92236339260339,
    146.24484719949143,
    36.812989085253285,
    117.21898195280029,
    138.30539833158005,
    -56.4835472392563,
    -20.981865169236038,
    31.17885631978364,
    71.83872113042506,
    0.4555563608145169,
    9.003841641013814,
    63.61898652436025,
    -44.75450175240778,
    -145.79150585771973,
    -11.966524142258704,
    -61.725070654673075,
    -123.77337359749879,
    -94.0179008234306,
    -49.57127343210954,
    0.18166342262779328,
    -0.04616570912217943,
    0.14237568619137794,
    0.14038948303170998,
    0.11112675700120223,
    -1.9379498629548264,
    -20.992460802160213,
    -29.480611250331417,
    -64.52174157512235,
    98.42287399607292,
    -0.31417868056289744,
    -11.808452920016002,
    81.23378951557802,
    -72.98595042833648,
    -10.10532010361811,
    20.291014796056693,
    66.87906492241802,
    -59.899347478335564,
    -121.99642892061917,
    -75.80974296902377,
    -19.934861764921195,
    -49.859237339815024,
    -98.10517915129685,
    5.340673403340097,
    -144.91214685301085,
    -109.81202705268987,
    -18.416999201442454,
    -2.5902960445232392,
    -0.28805520609327884,
    0.15076051512717312,
    0.17838159233246328,
    0.14383379722078604,
    0.1765656670168251,
    -0.03967583553396713,
    0.057708781257186134,
    -19.03945856021901,
    -17.523361475349297,
    -54.32151890651876,
    -162.46480626696265,
    -203.85682089106177,
    -148.54335491319597,
    -133.5984992691496,
    -4.849785808347649,
    20.210306721337634,
    -93.6385723259248,
    -100.73873369562392,
    -172.3961519117333,
    -79.3941672910671,
    -5.738189498947622,
    39.71926769932206,
    -58.3318874240193,
    -69.44275774595154,
    -52.98594582297135,
    -40.553452039794934,
    -8.26800850577044,
    -0.6466082065734972,
    -0.08467035630229702,
    0.17224591299304995,
    -0.0380485481393932,
    -0.017113790207604535,
    0.03562986370477039,
    0.06634830916289691,
    0.09215716164661686,
    -8.042305478600955,
    -26.10610219247721,
    -47.8575952226354,
    -72.78125466636385,
    -102.34930588486391,
    -132.37315542402067,
    -132.54402504589507,
    -123.06445248194,
    -81.21445321051694,
    -104.69946528457885,
    -102.78654184108419,
    -90.60889729865605,
    -88.92691288912042,
    -65.73894294900794,
    -50.40556516019522,
    -35.23702774559692,
    -28.002896522932513,
    -29.883736164841288,
    -15.965313852965126,
    -3.7181378287320723,
    -0.07902230077825309,
    0.1453509457675972,
    0.1077135767025875,
    0.13333917645037863,
    -0.02463780542118879,
    0.1357975888886167,
    0.08971309975382663,
    0.05853011436407948,
    0.13888312775248482,
    -2.7270989737372227,
    -6.933408894967524,
    -6.403363774873177,
    -5.852093942026545,
    -6.275204209891069,
    -2.454765338895758,
    -2.592605493912731,
    -7.177758644998116,
    -11.447463703266392,
    -18.001521740351603,
    -22.17170578292742,
    -69.80794878371644,
    -163.3204197720964,
    -3.0219040751025013,
    -0.9453253730271931,
    -0.6956831335035321,
    -4.071455945631767,
    -12.7488056885731,
    -2.9014272119152222,
    0.1989566064562794,
    0.0956193512705599,
    0.050717461027331906,
    -0.08731497475374238
  ],
  "bias": -864.8117345166885
}