{
  "weights": [
    0.06340195078040992,
    0.10822520374973654,
    0.16642223690755045,
    -0.000812333439906554,
    -0.07915954189628885,
    -0.006773543392623871,
    0.058592485023877344,
    -0.040422139843773026,
    0.01602488290624264,
    0.04244854347199506,
    0.17907611229308915,
    -0.003994520998814879,
    0.0649963295128127,
    -0.08997080645142767,
    0.08173358835096844,
    -0.03061187158849167,
    0.0741716457178325,
    0.19415209661881097,
    -0.06054311434184173,
    -0.04300792308569251,
    0.1400439155946117,
    0.06204557850676248,
    0.13489430373854575,
    0.005534724983649444,
    -0.025472592163054503,
    -0.027488791259139722,
    0.05581510665162909,
    0.11552688291110597,
    0.09356459827790717,
    0.10003192578801043,
    0.015776639497697295,
    0.11551820504063123,
    0.08909378376673002,
    -0.02475773662640604,
    0.08204395424145494,
    0.12266847589415711,
    0.0645375010524559,
    0.06470478900901908,
    -0.04218509121506677,
    291.40315593727047,
    594.7334936198368,
    237.5330870734276,
    -31.391163621842615,
    444.19138115680715,
    1338.4092372006676,
    672.5523115459512,
    -0.09736462857382883,
    0.1363652095658736,
    -0.0824805645229491,
    0.18078882190009013,
    0.08150614921515262,
    0.08922527307425493,
    -0.0700875685877855,
    0.19190353545428665,
    0.038201063072224456,
    0.11831815015124306,
    0.13064912413471644,
    0.08591912908268468,
    0.14004034288462908,
    0.1296570984098391,
    0.10516610627489856,
    0.14786894940979325,
    -78.34899049050543,
    -153.31987377232886,
    -413.77702982425467,
    -737.9171939602543,
    -560.8221782450092,
    -633.6994247659422,
    -692.2343834368361,
    -796.9064932606185,
    -1140.8928539209771,
    -1172.115974454027,
    -670.8575392016936,
    -892.6105098420547,
    -1003.2836302946779,
    -877.2301618702098,
    -892.9387367092235,
    -354.16812482521425,
    -97.96765660970708,
    -54.79850071936161,
    -26.691841804589718,
    -0.0740140509995979,
    -0.07439004687017153,
    0.09333767670518109,
    -0.05940776293723402,
    0.15844403728838033,
    -0.060222430368382596,
    6.0012996176526885,
    6.648967356698499,
    -107.18978833166258,
    -432.33098540225274,
    -725.9838856414389,
    -560.711317509099,
    -1103.9144505224808,
    -1676.4296288377163,
    -43.82570265109429,
    -923.4919185042066,
    149.91379206607616,
    -538.7973006081295,
    -51.88104739889865,
    -601.951961920815,
    -62.199448181792086,
    -678.485851516038,
    -477.2702519638916,
    -126.98411105242835,
    -1090.9326264795218,
    -731.5216935053267,
    -86.87525889323696,
    -74.17869445052764,
    -277.9592261142229,
    -72.2374445222783,
    0.014663029468104646,
    -0.026227132664999944,
    0.10634737119915283,
    0.1886182188901808,
    0.06255289530915417,
    -40.17585222340858,
    -250.19012652283945,
    -303.6926577927552,
    -309.14451183610475,
    -3.8239272360426604,
    457.36142988684355,
    -312.3119811523562,
    433.3794917557307,
    -376.72415755778775,
    214.3844764731473,
    -632.9188409556064,
    556.754603665927,
    -557.0429166839031,
    103.03151268771492,
    254.0370551504463,
    -265.1696872510206,
    -104.32081131714357,
    -45.88687287910058,
    -79.78971211821516,
    -514.2088234291896,
    -298.35863493448096,
    -262.14652583142464,
    -40.98859753509274,
    0.1403501299529745,
    0.1613245649023329,
    -0.025511630836862018,
    -25.695660409108,
    0.1031590449994072,
    -267.2835358323814,
    -624.3046566320329,
    799.7849522569937,
    -194.9724486607553,
    22.52014448197502,
    -63.9341532793963,
    258.38282040266375,
    -83.7409004426177,
    -162.63430660581338,
    305.1519507355579,
    8.30867532507176,
    12.516237664245361,
    41.66672376224497,
    106.66038829342645,
    -87.26167888855466,
    -109.79885817375535,
    156.14513182389697,
    -133.14710395334788,
    -346.0444511873814,
    -85.9470293384042,
    -512.6168557959347,
    -812.2996100227083,
    -92.31139916327896,
    -195.01362410491225,
    0.14808761478283833,
    -0.035971822455136956,
    -31.650921042419057,
    -6.58725260069137,
    -506.7942110390674,
    -488.06632034453196,
    -343.35834427242844,
    -278.123562526241,
    306.3229555259867,
    -734.733539048392,
    70.4783512273631,
    -106.98276782369462,
    -132.15733807382486,
    306.5822734135049,
    118.07392369216714,
    -133.68889633489562,
    11.78283746852258,
    2.7071321815328613,
    144.17061009760837,
    124.14187791539578,
    -133.58533716242678,
    159.8304945162893,
    217.0506786024553,
    -175.63054862876965,
    -1082.8401815326297,
    -1121.614027805895,
    -760.6019909479246,
    -575.1659165436137,
    0.06859451836257327,
    -17.99524063032154,
    -23.16579311018598,
    -47.86178061134252,
    -203.8549066144638,
    247.58367434806854,
    239.61638658802627,
    -117.23372607582667,
    -460.4089302581472,
    196.76003562915002,
    -72.9110748073376,
    232.96737524205395,
    -199.65825506229427,
    -21.60477067066769,
    39.88137801097972,
    0.9511941215038178,
    -83.55668578316102,
    391.9665807801785,
    -24.56106015655456,
    377.2793419453154,
    -186.67974234975532,
    -85.55094089041887,
    -227.56480715571553,
    -42.82553606877458,
    -250.39912509231692,
    -877.5236010724904,
    -686.5955639639118,
    -42.0995416935901,
    0.12899795385732904,
    0.12300679234926637,
    -30.685122318065485,
    -102.16088863260117,
    -231.27420309052673,
    -518.6413207542217,
    92.40480448130434,
    5.682412275016647,
    -66.27605391707995,
    80.79800405349371,
    -259.58412303030207,
    -189.56039266772368,
    379.3529502311677,
    -219.3002828720454,
    101.86650795455498,
    138.07191003133624,
    507.60160714927633,
    -20.96872199378118,
    306.04799450712653,
    -263.20421456980824,
    250.39395128220718,
    -40.772224340241884,
    211.5076000026591,
    -228.16388011858066,
    -586.367435902386,
    -1531.7559887257776,
    -614.6721731571662,
    -67.05221203237967,
    0.003959844256533326,
    -7.486035161926282,
    -30.80604744220038,
    -769.5588881159769,
    -759.2653389773496,
    -467.2173636184748,
    193.77602688220807,
    -60.00251803903728,
    14.270113873776966,
    89.52386355982931,
    390.09988139390964,
    -94.50794449641566,
    -198.87727972192062,
    490.2580253859762,
    31.415329263119013,
    -122.53676119251837,
    115.96562744949398,
    172.70618085925003,
    -16.68691682730489,
    460.26560253173693,
    148.7934239235568,
    -65.5618536610547,
    -455.38830298886865,
    139.03395372387777,
    -134.82206139637833,
    -1586.7989109720877,
    -1026.3542342545056,
    0.09456940048823681,
    -0.04306560629309436,
    0.0921022669132025,
    692.1667156168568,
    -568.2070850048376,
    514.5575968697456,
    217.2587795357103,
    -46.2638944472223,
    427.3210016826106,
    -266.3688848873206,
    -16.14332086829158,
    -247.18721219169964,
    382.2071998947357,
    48.67309506075681,
    -279.6917546649705,
    42.77986635575722,
    -21.79359601663257,
    141.0872640807028,
    73.60365717296185,
    435.31794244153593,
    -450.2713295224277,
    21.63907253355254,
    77.26008268769951,
    564.4804850373248,
    133.49157300479402,
    -178.86370983811128,
    -969.4122087271079,
    -846.0464104667109,
    0.14319940567207531,
    0.030335911640051783,
    -0.029931632013338955,
    -171.43049244429622,
    432.9148421086415,
    -449.4830832384153,
    -363.45731245099313,
    229.4424354948964,
    41.59639347939129,
    67.82292599964843,
    -100.01138512370161,
    -231.9648429783343,
    90.3927619080528,
    -457.8885243538414,
    281.4870529900885,
    -608.767802204727,
    -211.6655241997976,
    -311.06151057850076,
    152.55502575409554,
    -294.7740787479304,
    407.57487686062973,
    22.95431393535484,
    113.38947322872423,
    -109.98980860262733,
    2.300560552894524,
    -221.92684884074168,
    -1674.41796280017,
    -775.7469483445439,
    -9.15180890781194,
    -0.05643888132386471,
    0.04879385570412503,
    -45.30250005312471,
    251.7353548968566,
    -1063.7594580392408,
    119.27635851387188,
    -238.53690281904744,
    -169.27168627791661,
    -64.94354683175207,
    167.27135187194793,
    -90.57199249203244,
    66.15610441104593,
    311.549689246351,
    -163.2425953106223,
    -278.11358531277887,
    -376.41442366165137,
    -265.1132036924272,
    -47.76174843073875,
    -100.89070701473375,
    -35.13386632318516,
    332.28765917114407,
    204.4426937724802,
    -58.146966972888706,
    -226.67395331190139,
    542.1244114999325,
    -45.51189182976795,
    -392.24900111338985,
    -10.669612818702463,
    0.015644091690699857,
    4.424658902534148,
    -0.027293464485020694,
    -113.3736487165032,
    840.6556696682248,
    -531.3762190849671,
    509.4732909330717,
    270.0806335289374,
    234.82027083733522,
    41.824845048045425,
    240.85778627147658,
    -94.68934231127018,
    52.81066766975305,
    -391.1607412048397,
    -419.3214154133558,
    -519.7342142901432,
    -335.4658235920775,
    -13.046581531011173,
    39.13489703625227,
    -185.35600188424715,
    -517.5827428001522,
    -335.63129225046765,
    476.38331794029716,
    157.2766575960161,
    -172.55820023930465,
    387.0975890524536,
    -39.26347374775173,
    -34.8043936050439,
    0.12787842953234285,
    0.05572538958849646,
    -180.52159418849845,
    -874.0636685792625,
    -528.4502831899914,
    411.0504641064038,
    28.83868966342696,
    232.09914540438328,
    -90.18735874147421,
    310.40372470896835,
    -348.3266241227733,
    115.06639572472665,
    127.5118989251954,
    76.22383841135644,
    -960.756963201206,
    -136.09326938594606,
    -591.970342747709,
    15.630239590834714,
    39.732591885885,
    -155.89640767756018,
    347.1261952263736,
    358.25522220948227,
    -242.7901352765796,
    426.5067665529401,
    -313.5622548736944,
    365.15018633977786,
    -249.65095666188412,
    -10.969872248725322,
    0.19109477249894044,
    0.04952521394883841,
    -217.09920678021615,
    -826.0523608119837,
    148.98944498140486,
    227.18317791102143,
    -210.35816937365252,
    326.03309531139047,
    392.52240052631197,
    143.12982731398532,
    263.15244194745037,
    -283.4226028171994,
    -60.89513213146729,
    -184.5249533674991,
    -1022.6473685908444,
    41.846566976860416,
    -347.54645316515825,
    -275.8434125141952,
    -67.7559365745121,
    -34.55733705850917,
    -46.873609718073325,
    -79.2145768771122,
    234.2251313897537,
    6.039929960640811,
    230.5559810201917,
    -301.91219376217555,
    -527.8427830822365,
    0.1618396828873754,
    0.18328965615147955,
    -0.08290736851209657,
    -12.334804273776786,
    -810.5346277484733,
    -473.15393857522,
    81.99757532800348,
    118.2911499498771,
    147.01203530849912,
    67.86390103475306,
    227.15242746890834,
    226.08634529224653,
    171.13636871548601,
    -72.6032973818609,
    -871.9583875994172,
    -485.81251983025237,
    -56.943720161287445,
    -210.70146132030186,
    143.84178095912898,
    -171.3628517943238,
    39.797006406208155,
    -59.80104083390056,
    332.48622657034934,
    -485.934278542238,
    46.214189953297186,
    -322.87638537387164,
    -922.9932798903878,
    -853.9778268222059,
    -0.09414982862766996,
    0.1313194610942797,
    0.09924809229258802,
    -32.25970984995294,
    -371.8183465870497,
    204.59071024302432,
    43.919674578008284,
    194.00181202053975,
    48.596881815089056,
    82.75998431077008,
    -61.94517144257254,
    129.30739050203445,
    -384.4372832982628,
    105.75332500191263,
    -588.3061377000248,
    -186.31148906558582,
    -100.96898192997611,
    -44.62532124069192,
    191.9735971120865,
    -122.27288191286101,
    40.00642163288036,
    267.6132185957149,
    -502.42934625667993,
    830.0846763544653,
    -125.97671072110586,
    195.2005851407542,
    -380.54395122392174,
    -147.0747823410176,
    426.51695848328905,
    -0.031044472074765725,
    -0.0010331826347720202,
    -41.250674059634335,
    -925.8624068851732,
    95.80201513374621,
    -197.2961116785761,
    -105.56525181798258,
    28.801117556980195,
    253.0550478971904,
    104.23789679365811,
    131.71028980532154,
    177.28715975506717,
    -130.25871517297924,
    -405.40411011756805,
    -432.5928585610293,
    -111.59238832819815,
    -231.55967350693018,
    23.987244026053162,
    -133.74288179382674,
    -34.54658228185731,
    -283.6797913823377,
    267.7319964570954,
    -375.02804498826805,
    -136.6065065561564,
    287.80579210777904,
    -296.44177571362894,
    -436.33981575437866,
    -215.36033674162087,
    0.14364453533523328,
    69.12042949673001,
    20.015598634492648,
    -965.6989639852864,
    -436.5617925701044,
    -74.89843601762976,
    332.4007568778772,
    -99.22173521912451,
    270.84988142768293,
    -302.84191802639623,
    71.84982466924478,
    -207.26430874468335,
    485.74568849308884,
    -546.7159033643896,
    42.37971736006406,
    -181.81526874733655,
    -49.728208201263286,
    -195.0898826422593,
    93.57559374343026,
    -272.88065897960126,
    100.71192138447094,
    44.28497221083839,
    336.50523855370534,
    -527.4486390768363,
    -246.97343495270377,
    -547.3998357365895,
    -115.87998236241496,
    -35.737452897846595,
    0.053618169070385996,
    174.15468615399863,
    -214.95374244962284,
    -646.9501617783685,
    497.69147883285723,
    -4.075670492861171,
    -236.66429196499442,
    223.25650375561418,
    -64.98217815373386,
    -217.44675741386533,
    219.11414999257258,
    230.13751189251207,
    -45.534696410045,
    285.3569089145136,
    -352.829656583026,
    249.17988018593317,
    -413.2688211467582,
    -90.77938184494971,
    289.44970762786187,
    -123.23969723373635,
    -194.8747359914013,
    -161.5734447929849,
    18.170902358057127,
    -95.95963869922579,
    -282.9838059357581,
    -577.1554521712827,
    2.0653465580815378,
    -0.06606669055490912,
    -0.07276237782538854,
    -0.08554283628719218,
    -619.3266537551997,
    -90.35345872035259,
    -228.25916086901333,
    -96.46357357380421,
    164.37406624447038,
    32.174285644512096,
    -275.9836589028858,
    390.44579702818464,
    187.50706374815812,
    159.7772464900439,
    13.06677706016934,
    134.17743342263836,
    -352.1441864603895,
    85.66780036513758,
    250.50332421349825,
    -593.0215626124957,
    -55.496681535530136,
    -274.6306786776163,
    -233.00848853172823,
    -456.24286932179666,
    310.64123113180426,
    -874.7408328468553,
    4.604826128951298,
    -187.3676427009568,
    654.0014413444914,
    2.7081897292205763,
    0.0814162730913634,
    -0.04177198137978103,
    -50.87100507730688,
    -239.52274060457512,
    -508.3675220614842,
    -148.79714080537423,
    116.25718807480516,
    -215.4700512394555,
    90.98862854125838,
    -45.375772286439094,
    -77.41446462443741,
    58.62294506573279,
    -252.80193607797312,
    797.8866627650953,
    -349.459889369501,
    -147.54956573615044,
    -147.19805105545927,
    466.47747659014817,
    -355.2650789653993,
    111.69697089221933,
    288.69842205368406,
    -202.22099237841297,
    373.8903576364252,
    174.28008822807402,
    -454.5114479538437,
    -85.1915750599049,
    49.75806813570894,
    5.103024768565164,
    0.005583441123098054,
    0.13863138584353318,
    -6.405699695230422,
    -67.01710150058781,
    -1218.9616311278253,
    197.47941800490491,
    -139.99918692201626,
    413.6838275916508,
    -159.47140307160993,
    248.020158423388,
    204.63986891981094,
    106.76139393721016,
    -27.13774752217868,
    -191.20181034688375,
    118.91632897355396,
    -10.780404423499334,
    -396.9794132609456,
    383.0759277008312,
    -575.1099135171189,
    -294.86542742634543,
    -747.2786417893096,
    -304.85565888996655,
    183.27929306916792,
    -604.7055086665703,
    -581.5268028438744,
    -60.63708167541143,
    -5.926165709122181,
    0.14237568619137794,
    0.14038948303170998,
    0.11112675700120223,
    -73.38928319628816,
    -99.37955884137594,
    -425.2677485052328,
    656.7231211699775,
    -393.22089070981303,
    -100.94315907271894,
    -87.78370782197592,
    300.2470444175384,
    -145.0200680753995,
    -416.54728088794235,
    363.82274028625596,
    -206.6507389991492,
    -62.67244551755362,
    83.80192402055987,
    -380.72672336118427,
    104.53776568605912,
    67.80664501312633,
    -595.4156497395331,
    -661.3168167927383,
    -428.213676264777,
    -420.36304666053434,
    -918.1132737112478,
    -190.3404529072684,
    -5.977270892367788,
    0.15076051512717312,
    0.17838159233246328,
    0.14383379722078604,
    0.1765656670168251,
    -0.02979348259279066,
    0.1183754479238528,
    -216.41612522688578,
    -570.6529301028004,
    -1026.684656161418,
    -1235.4632376395075,
    -832.2495659890973,
    -439.7751980504428,
    -1165.974146327963,
    13.86821419165067,
    -1066.328320729645,
    -655.4541801690506,
    -953.4444199701298,
    -1607.8013283823163,
    -1266.168677094979,
    -1321.821640479345,
    -1777.2237911242034,
    -1013.5886717377467,
    -891.3517381381087,
    -780.5618281759133,
    -540.2266285103832,
    -283.1997339959665,
    -57.57115722618134,
    -0.08467035630229702,
    0.17224591299304995,
    -0.0380485481393932,
    -0.017113790207604535,
    0.03562986370477039,
    0.06634830916289691,
    0.09215716164661686,
    0.04392981551669267,
    -176.72990611404595,
    -230.32096777165526,
    -361.1315683918548,
    -474.28812941427657,
    -852.0044495416689,
    -1028.6274760262859,
    -892.7973544427251,
    -679.2488845830667,
    -795.7910731277178,
    -681.1136398802995,
    -1075.5885051417933,
    -1060.0259324969634,
    -650.3484723607722,
    -405.6863102582347,
    -69.72836107893008,
    -426.28395534646216,
    -548.5255400864099,
    -248.71366679414163,
    -15.763902534614438,
    -0.07902230077825309,
    0.16154702419896974,
    0.1077135767025875,
    0.13333917645037863,
    -0.02463780542118879,
    0.1357975888886167,
    0.08971309975382663,
    0.05853011436407948,
    0.13888312775248482,
    -13.246863679619572,
    -25.121330463594976,
    -25.25367750036336,
    -39.541858647908896,
    -83.94061597459697,
    -80.88633396634674,
    -42.31307608214803,
    -71.48771942931184,
    -63.64028723267819,
    -114.50599232858687,
    -222.90288225351563,
    -199.30904682293215,
    -39.07398839954767,
    -32.00629623196525,
    -11.008580274987978,
    -35.39564391781726,
    -94.89988731818079,
    -283.69876647288686,
    -65.31068211387603,
    0.1989566064562794,
    0.0956193512705599,
    0.050717461027331906,
    -0.08731497475374238
  ],
  "bias": -460.00173451644145
}