{
  "weights": [
    0.06340195078040992,
    0.10822520374973654,
    0.16642223690755045,
    -0.000812333439906554,
    -0.07915954189628885,
    -0.006773543392623871,
    0.058592485023877344,
    -0.040422139843773026,
    0.01602488290624264,
    0.04244854347199506,
    0.17907611229308915,
    -0.003994520998814879,
    0.0649963295128127,
    -0.327147277039663,
    -0.15544288223726688,
    -0.03061187158849167,
    0.0741716457178325,
    0.19415209661881097,
    -0.06054311434184173,
    -0.04300792308569251,
    0.1400439155946117,
    0.06204557850676248,
    0.13489430373854575,
    0.005534724983649444,
    -0.025472592163054503,
    -0.027488791259139722,
    0.05581510665162909,
    0.11552688291110597,
    0.09356459827790717,
    0.10003192578801043,
    0.015776639497697295,
    0.11551820504063123,
    0.08909378376673002,
    -0.02475773662640604,
    0.045808660123807875,
    -0.09007662214505863,
    -1.1284821067906816,
    -1.3825108972654907,
    -6.020734110822916,
    -3.1947264156708455,
    5.290395580621221,
    24.755047857741314,
    5.951503044824083,
    1.5846752744535988,
    3.6635117104699626,
    71.5465860557543,
    153.59765497926935,
    158.32071815074238,
    23.01751943547705,
    0.18078882190009013,
    0.08150614921515262,
    0.08922527307425493,
    -0.0700875685877855,
    0.19190353545428665,
    0.038201063072224456,
    0.11831815015124306,
    0.13064912413471644,
    0.08591912908268468,
    0.14004034288462908,
    0.2809120003706234,
    0.10516610627489856,
    0.14786894940979325,
    -5.401304215995609,
    -21.84587377232884,
    -26.105225902686175,
    -105.93468415633194,
    -59.32845275481322,
    -117.61413064829583,
    -86.78516775055965,
    17.78782046486987,
    -32.24987352882046,
    35.12900593813021,
    87.5644607983106,
    -28.9071372930353,
    166.09382068571367,
    107.7933675415542,
    132.10365544763943,
    127.53481635125672,
    -6.690950727354123,
    -0.17379483700866893,
    0.005609175802440296,
    -0.0740140509995979,
    -0.07439004687017153,
    0.09333767670518109,
    -0.05940776293723402,
    0.15844403728838033,
    -0.060222430368382596,
    0.5237309902017072,
    0.01296735669849812,
    -6.865788331662607,
    -17.896122657154116,
    -46.621807210066024,
    -69.05355280322053,
    73.51602006575703,
    59.23492018189748,
    -105.32715363148381,
    -47.91599693557203,
    -22.350717737844295,
    5.93940527422117,
    3.1628349540418865,
    -7.544903097289788,
    47.20698319075988,
    21.80677593494625,
    -95.08233039526272,
    63.60475169266797,
    77.13678528518479,
    4.671326102512265,
    -10.644709873629397,
    -0.993008176017945,
    0.14116604263992658,
    0.14255547772171237,
    0.014663029468104646,
    -0.026227132664999944,
    0.10634737119915283,
    0.1886182188901808,
    0.1402391698189581,
    -2.8315384979183698,
    -15.92236181695709,
    -39.56152053785182,
    -123.37960987532199,
    84.15536688160671,
    151.07382204370774,
    79.16452865156334,
    98.15992312828153,
    -146.02145167543253,
    -119.84466078175664,
    -185.42833115169645,
    93.62966248945789,
    94.4770048846987,
    -105.46938927307085,
    93.87787867985382,
    -17.97635391768689,
    74.5975416240323,
    37.10183300325432,
    99.66997415629652,
    -26.446901860562168,
    -11.114321208992587,
    -0.5933101451504355,
    -0.038597535092735474,
    0.1403501299529745,
    0.1613245649023329,
    -0.025511630836862018,
    0.016300375205727566,
    0.42762963323470116,
    -9.24651622453813,
    -40.8477938869357,
    -110.6106163704579,
    -47.93511532742198,
    -39.22314963567207,
    32.8544349559001,
    -47.507846264002886,
    23.88011916522668,
    -17.44497327247829,
    194.2455977943659,
    10.145969442721704,
    -62.681879982809875,
    252.7584492524482,
    -3.262396020294151,
    87.88408581733447,
    54.20729868898813,
    -92.89949562708571,
    20.70877839959609,
    51.475117440074676,
    -48.05342149526668,
    -29.658581286136425,
    -5.340982571725268,
    -1.0506148495534884,
    -0.03370253628474011,
    0.14808761478283833,
    -0.035971822455136956,
    -0.8800190816347342,
    -0.07395848304431045,
    -18.57962280377308,
    -79.68494779551357,
    131.23753808051504,
    -82.15266056545775,
    -94.09378957204537,
    -69.90620571507321,
    14.146194364620609,
    21.605859627288318,
    78.72109329873278,
    12.613018511547835,
    -3.8652527784174953,
    109.1990252337192,
    37.888170801864725,
    -69.12192664199333,
    108.88045323487673,
    77.88697595461703,
    21.195094210123468,
    84.2914356927635,
    58.410364876960884,
    -59.98560745229797,
    -55.41504427772418,
    -23.597596433347224,
    -12.08183408517973,
    -1.5612106612610104,
    0.06859451836257327,
    0.047190742227482096,
    -0.05042056116636792,
    -2.287388454479776,
    -29.375926222306806,
    13.5503410147343,
    1.458817960575689,
    -55.66502019347099,
    -58.69375378754589,
    56.77842778601159,
    -95.54605519949136,
    27.293375242061895,
    -6.086294277978287,
    94.47746462345216,
    -48.55168081254861,
    67.5049980430712,
    -5.810293626299182,
    175.1861886233339,
    68.39674376501512,
    101.0961262590512,
    -51.01178156544161,
    121.40117675663568,
    -1.672062057678926,
    -11.202830186422517,
    -65.27520352369257,
    -36.99846381758942,
    -15.898112983519885,
    1.859909286802055,
    0.12899795385732904,
    0.08649698842769774,
    -0.4226125141439111,
    -9.43284941691491,
    -55.62086975719346,
    56.22640473597672,
    78.5730789911078,
    22.244961294625455,
    -127.12828921120244,
    -77.98944692689427,
    -74.71192695186818,
    -55.969098550089946,
    -108.36779486686012,
    -41.437694636757435,
    6.434547170241699,
    239.96940022742595,
    142.96776401199227,
    -58.48844748397201,
    83.66540627183899,
    -35.792606726669334,
    117.31681402731957,
    63.90605016956354,
    -76.1825176443855,
    52.11913948926547,
    -66.8699849220002,
    -53.466341666963665,
    -19.202486882656558,
    -0.9033100715953493,
    0.003959844256533326,
    -0.1843488874164775,
    0.10759961662315043,
    -19.853946939506063,
    -85.6564370165623,
    38.861773636435046,
    47.63304649005809,
    29.672148627632758,
    99.16474132475277,
    1.9017066970877505,
    91.26741080568252,
    -100.9699052807282,
    -83.45386795716811,
    6.923123425216695,
    -106.38694524667733,
    59.33284665061759,
    79.64111764557558,
    57.19547497689989,
    78.54382827074099,
    22.96270057096592,
    76.47683568827652,
    -21.472010523802687,
    -5.699518675141468,
    42.00846352780813,
    -59.97339472971295,
    -60.575734501515605,
    -17.463449940779412,
    -0.4621364818647044,
    -0.04306560629309436,
    -0.02181930171424848,
    2.492676401169685,
    -28.65669284797487,
    -18.433658032214897,
    39.48348541806091,
    65.50387025865481,
    -28.33013557227791,
    5.841624916602386,
    39.653541876807864,
    -65.00164356425208,
    96.59649401241667,
    -10.03686572355192,
    -110.58685270416329,
    -91.76232972266746,
    23.6103255519986,
    137.6224013356121,
    62.23812776120344,
    97.15919734352298,
    95.85714106581044,
    23.019856847278376,
    35.39074935437985,
    42.49213209614022,
    90.67271025969673,
    -25.52555297536479,
    -33.26542441338849,
    -16.282332035337554,
    0.14319940567207531,
    -0.004801343261909008,
    -0.10679437711137818,
    -1.140531659982534,
    -24.492334361946696,
    -11.3176714737103,
    -1.4933516666782503,
    27.691455102755082,
    141.89568759700504,
    -23.855113216035786,
    66.46371291551546,
    -19.06217631167488,
    98.91436975118935,
    76.11127956775452,
    -369.7218489706007,
    -18.649410047840494,
    -9.815171258615601,
    112.65425412738188,
    -52.48320954001469,
    148.9114506638258,
    72.97240627241972,
    -22.101803711702583,
    76.3254340130409,
    49.97172080913987,
    82.69679584700837,
    4.497347237690147,
    -12.833452996261835,
    -4.288203246504579,
    -0.0896912607531152,
    -0.05643888132386471,
    -0.8543433991978363,
    -0.38995103351685845,
    -22.985547063927815,
    -36.537458039234245,
    85.78643694525228,
    -33.09898125041987,
    76.60372548678659,
    -37.88621349841401,
    43.93601853861884,
    77.06592907658872,
    -53.916405392882425,
    54.36941473654832,
    -168.2798502125757,
    -271.0210755088362,
    -166.31807072046766,
    -179.98579192773732,
    92.60938882416998,
    8.288155730366809,
    52.96429053956222,
    -19.266889848445743,
    65.7158702430809,
    93.85679773300237,
    -0.12979644915500455,
    39.214215421497464,
    8.158068954546032,
    -0.7719422898607363,
    -0.18224026968285387,
    0.015644091690699857,
    0.8983059613576764,
    0.4734124178679196,
    -33.116589892973614,
    -44.062251900393875,
    47.40766326798263,
    59.06583995269244,
    100.1071825485443,
    -0.40361151558632297,
    22.048609753925152,
    -45.048841179494026,
    124.24183415933071,
    -42.015449977301884,
    -242.9504274793585,
    -81.71608208002216,
    34.04676610201207,
    -25.342490258737325,
    -30.334385452578502,
    -76.80239708138737,
    37.08725301771656,
    -127.82960554521686,
    22.5570606907274,
    106.6054355873373,
    -39.006362011821295,
    36.594113486188,
    16.905745915203713,
    -0.16559139481054702,
    0.007841689073747058,
    0.12787842953234285,
    0.05572538958849646,
    -1.1247706590867077,
    -38.44704112828324,
    -53.796753778224385,
    36.57269940052165,
    156.81186613399922,
    1.3950669730146685,
    143.36915106243936,
    -46.08321646750451,
    95.89666999485868,
    -184.2165454517097,
    75.26582049382569,
    -212.13635766707185,
    -195.3931592796695,
    -144.0658576212387,
    -182.46704863006147,
    -52.185760409166825,
    42.007180121184774,
    -9.202486108935407,
    61.68733248129791,
    14.758633974186889,
    89.88664903714152,
    -17.69291972156758,
    39.533392185132,
    16.273205947623016,
    -0.06472136776639152,
    -0.04987224872531958,
    0.19109477249894044,
    0.04952521394883841,
    -3.34061854492197,
    -37.49000787080809,
    -43.258280508789625,
    30.604236734561344,
    98.00253650871942,
    0.8710168800569585,
    151.04792993809303,
    94.36508221595452,
    -44.56096981721573,
    196.51441679067622,
    -123.00187722950511,
    -247.2817376812361,
    -204.79811368889534,
    -17.701197729020777,
    -128.26911983182742,
    -120.13239290634108,
    13.635122249018576,
    -21.717415489887717,
    117.43560596819779,
    -11.41230236730916,
    113.14681766426641,
    -6.167521019750631,
    47.37531435352606,
    5.928041531942526,
    0.04753064325378324,
    0.1618396828873754,
    0.18328965615147955,
    -0.08290736851209657,
    -3.0953532933846253,
    -42.27721598376503,
    -132.18887975169233,
    126.15686944565147,
    -47.65908534423775,
    101.56638824968446,
    -1.7926872005367271,
    95.56011374345452,
    1.7709335275470106,
    130.44440793119114,
    -155.79404247991425,
    -230.6603875994602,
    -55.97793159496818,
    -37.745602514230505,
    -118.87463779089559,
    -36.561670021260326,
    9.27420702920761,
    -9.608719083986943,
    -63.37323691233118,
    0.9187363742782448,
    -95.52259226771322,
    -0.9836531839573898,
    37.37600678299258,
    -1.9697896943134126,
    -0.6558660378908803,
    -0.09414982862766996,
    0.1313194610942797,
    0.09924809229258802,
    -2.6642588695607796,
    -52.70234658704899,
    -118.26246622756449,
    109.59367457800391,
    -0.7738742539599508,
    -24.55119661628144,
    5.3493176441070345,
    -120.4670930111905,
    52.05072383537276,
    64.36455983901111,
    -117.88322401768684,
    -140.21911809221285,
    -194.1278812224553,
    10.531684736688371,
    -96.15602712305079,
    84.46595005327971,
    -101.69150936383475,
    135.02524516228405,
    -74.00352650230347,
    61.40253609626892,
    -27.908892273015642,
    24.744269671050123,
    1.8745851407518725,
    -0.8452845572518894,
    -0.4365862625862317,
    2.4026055421132226,
    -0.031044472074765725,
    -0.0010331826347720202,
    -5.328046608653932,
    -74.77166178713813,
    -117.45614172899818,
    36.91784910574012,
    119.525375632986,
    26.653627360906526,
    -50.47867759300437,
    120.06915169562208,
    55.69715255042497,
    81.9510028923202,
    -242.04130340829212,
    -16.89587482343201,
    -77.98466248258048,
    -108.86321185762121,
    -101.64626174221,
    11.028459712329216,
    -99.86974453891645,
    -24.25685679166019,
    -51.86834040194843,
    5.377212143374591,
    -4.875456752967592,
    -3.0786242032126863,
    -19.631462794182035,
    1.354145854999366,
    -0.5585216367314056,
    -0.24484654554249147,
    0.14364453533523328,
    1.216586359475106,
    -5.372715090997564,
    -69.65504241666468,
    -147.10355727599713,
    -22.914514449001658,
    100.69609021121002,
    47.06371576126941,
    -69.30729504288108,
    43.91529765987076,
    -86.30899886016401,
    114.54106380434435,
    75.58192378722141,
    22.348135851314538,
    43.237011477720685,
    -144.31201384538033,
    50.261438857566404,
    -42.728706171668826,
    6.251280017940555,
    -19.218776626658634,
    68.98572530604079,
    -73.45749837739527,
    -6.251820269820356,
    -42.062599861146715,
    -37.43378789388114,
    -4.806776913060492,
    -0.1524137349639586,
    0.10254710215341273,
    0.053618169070385996,
    3.089235173606346,
    -5.1953110770740425,
    -57.19741668032954,
    -111.71561920636353,
    -10.234297943842417,
    -29.628448827722707,
    2.329641010518226,
    -193.51919776154475,
    106.28869356654083,
    126.91673822786888,
    -175.47405673496428,
    141.24946045267723,
    -8.610424418804618,
    9.99242184837982,
    -163.33561001013854,
    -91.01215448006593,
    55.039951488389505,
    -86.47911590155036,
    -9.79275605726336,
    -88.54857912865394,
    -34.64148400867264,
    -45.09345058311946,
    -56.48046222863777,
    -26.429413778892005,
    -3.213099230105762,
    -0.16257501054591855,
    -0.06606669055490912,
    -0.07276237782538854,
    -0.5933859735420942,
    -12.31520277480753,
    -36.80812538701893,
    -68.32837655528664,
    -27.875377495371556,
    24.060027028789367,
    -76.5782633751005,
    -8.781854981315375,
    64.11320879293203,
    33.98114217953569,
    -80.38094958838933,
    66.90638490330814,
    87.56539420694504,
    -34.230539401546075,
    -82.12082708583851,
    25.187324213498336,
    -25.57081751447356,
    -94.45566192768638,
    -68.73432573642539,
    -66.01099833564763,
    -73.99153598846524,
    -57.417945338778495,
    -46.30016618018843,
    -16.71552681222546,
    -1.6510544656626942,
    2.2273236974328503,
    -0.02181027077942392,
    0.0814162730913634,
    -0.04177198137978103,
    -6.863789391032352,
    -28.638819035947126,
    -76.41097304188237,
    -87.05576825635458,
    118.71212925127834,
    -153.97573751396678,
    -142.7619596940301,
    125.54089438022113,
    -46.93371952639687,
    61.885768595153685,
    23.31155411811794,
    89.66646668661345,
    -73.72165407535951,
    -44.46070299105326,
    -140.60514909467005,
    46.29822168820064,
    19.74029358362012,
    -120.61930361758428,
    -85.91138186787789,
    -81.96126688821846,
    -57.363171775337186,
    -33.60261765427923,
    -14.096977365608756,
    -0.6807123148068824,
    0.04187205727756177,
    0.06302476856516329,
    0.005583441123098054,
    0.13863138584353318,
    -0.18585655797551948,
    -5.741297579019185,
    -35.47355269645198,
    -33.12062121078246,
    -82.26977515731087,
    142.26912170929904,
    -48.09728542455114,
    166.07898195277772,
    121.37363362569857,
    -7.145351160824947,
    -40.000727914334384,
    -18.590045641004142,
    33.50370152258184,
    11.614379890226466,
    -31.604119143300732,
    -91.55371935799215,
    -25.67030567397639,
    -111.5746823283063,
    -104.26907316186542,
    -88.17546281153564,
    -50.16549124455696,
    -27.096802784216024,
    -11.937077353678378,
    -0.10876794992122646,
    -0.04616570912217943,
    0.14237568619137794,
    0.14038948303170998,
    0.11112675700120223,
    -1.777910647268552,
    -2.719166684513197,
    -13.78880732876285,
    -22.43472196727827,
    -41.8008514941232,
    -69.48653162174014,
    -69.96115880236681,
    55.77684833910613,
    -50.67736219304259,
    -13.58226128008798,
    26.07795597252948,
    70.91628060869124,
    -29.737582772455088,
    -73.32529166571229,
    -72.07393904745376,
    -72.75878333354919,
    -139.93715890844314,
    -92.79890464149341,
    -75.47638542018832,
    -60.1816762647747,
    -39.89190940563147,
    -20.131038417128742,
    -5.157237220993823,
    -0.4162512845246515,
    0.15076051512717312,
    0.17838159233246328,
    0.14383379722078604,
    0.1765656670168251,
    -0.02979348259279066,
    0.09229701655130378,
    -0.2964781680621538,
    -11.420185004761084,
    -44.95826400455813,
    -108.73006116892238,
    -214.56242873419654,
    -167.8271196190772,
    -159.1251659358125,
    -61.189903455409315,
    -21.74659523944741,
    -131.99500369847266,
    -178.96936114660335,
    -210.55658328428058,
    -150.64757905577252,
    -130.25418949895004,
    -95.40324210460003,
    -52.63663252205858,
    -34.746640098892925,
    -26.321161509246497,
    -19.872432431951697,
    -6.893263407731198,
    -0.9708042850048693,
    -0.08467035630229702,
    0.17224591299304995,
    -0.0380485481393932,
    -0.017113790207604535,
    0.03562986370477039,
    0.06634830916289691,
    0.09215716164661686,
    0.021145501791202472,
    -9.29978846698711,
    -30.774026595184626,
    -55.698235058521185,
    -81.86044313976586,
    -110.02997895343259,
    -112.84767210471848,
    -92.75472699174382,
    -61.7862963477723,
    -66.50252410810933,
    -78.61211046853434,
    -62.25395612218579,
    -56.8092658302974,
    -34.18376647842066,
    -21.411290650391336,
    -11.555615980890858,
    -5.924622013128601,
    -7.440638125625555,
    -10.923392284337655,
    -1.5665299855948285,
    -0.07902230077825309,
    0.16154702419896974,
    0.1077135767025875,
    0.13333917645037863,
    -0.02463780542118879,
    0.1357975888886167,
    0.08971309975382663,
    0.05853011436407948,
    0.13888312775248482,
    -2.768275444325458,
    -7.175252032222427,
    -6.758304951343769,
    -6.107937079281451,
    -4.471125778518518,
    -1.4794320055624228,
    -1.8371545135205762,
    -3.370307664605955,
    -6.660287232678181,
    -15.614109975645723,
    -25.3955489201823,
    -11.598419371951776,
    -2.704733497586881,
    -1.8500217221613262,
    -0.6156390985173893,
    -0.3907027413466692,
    -2.756553984847449,
    -10.50551157092602,
    -2.581348780542676,
    0.1989566064562794,
    0.0956193512705599,
    0.050717461027331906,
    -0.08731497475374238
  ],
  "bias": -814.1317345166523
}