{
  "weights": [
    0.06340195078040992,
    0.10822520374973654,
    0.16642223690755045,
    -0.000812333439906554,
    -0.07915954189628885,
    -0.006773543392623871,
    59.69859248502389,
    73.17957786015623,
    0.01602488290624264,
    0.04244854347199506,
    0.17907611229308915,
    2.0260054790011854,
    14.554996329512814,
    15.880735075901514,
    15.49243947070391,
    14.669388128411509,
    13.374171645717833,
    6.914152096618811,
    -0.06054311434184173,
    -0.04300792308569251,
    0.1400439155946117,
    0.06204557850676248,
    0.13489430373854575,
    0.005534724983649444,
    -0.025472592163054503,
    -0.027488791259139722,
    0.05581510665162909,
    0.11552688291110597,
    0.09356459827790717,
    0.10003192578801043,
    0.015776639497697295,
    0.11551820504063123,
    0.08909378376673002,
    47.995242263373605,
    89.20961258169245,
    88.91753122099229,
    187.57669436379746,
    279.7970577301859,
    26.568246281333934,
    -1.977275435278602,
    25.884670090425157,
    17.56124393617271,
    -143.11747734733274,
    -148.09591296084,
    62.44402151439126,
    107.91007625183283,
    199.5640471361321,
    205.58718873897766,
    29.7968135531241,
    0.18078882190009013,
    0.08150614921515262,
    0.08922527307425493,
    -0.0700875685877855,
    0.19190353545428665,
    0.038201063072224456,
    0.11831815015124306,
    0.13064912413471644,
    0.08591912908268468,
    0.12247171543364868,
    0.26499043174317244,
    17.79924453764745,
    89.36657483176273,
    117.9782251957692,
    -110.83591298801487,
    19.509793705157048,
    8.115355059354007,
    -80.85441353912687,
    -156.57338555025746,
    -91.68626578977513,
    -7.949395221404387,
    -71.43422646999676,
    -42.33601366971277,
    87.12771570027202,
    -9.207215724407886,
    176.0028010778706,
    176.48999499253688,
    175.10204760450137,
    172.12262027282424,
    -7.4296566097070595,
    -1.1721869938714138,
    -0.894233961452462,
    -0.0740140509995979,
    -0.07439004687017153,
    0.09333767670518109,
    -0.05940776293723402,
    0.15844403728838033,
    -0.09892831272132377,
    16.20977020588797,
    72.68477127826705,
    129.48103519774966,
    64.79748518598313,
    -131.38302289634072,
    -152.93716064635885,
    132.45547104614965,
    174.28884175052272,
    -90.12836931776108,
    -97.7801537983164,
    -39.85236479666754,
    82.82575821540077,
    172.98832515011716,
    31.94415572623961,
    -121.79415406414614,
    -19.651616221917532,
    -64.15770294428228,
    97.75020267305955,
    133.87576567734087,
    20.192384926042116,
    -12.292043206962742,
    -1.8052826858218674,
    -0.019147682850269503,
    0.14255547772171237,
    0.014663029468104646,
    -0.026227132664999944,
    6.406347371199153,
    17.96861821889018,
    35.82431760119151,
    146.37826542364937,
    95.31203033990599,
    -156.32289308687442,
    -2.7753745812053063,
    24.81787668552482,
    65.57088086723667,
    77.82519531822932,
    12.450550579258707,
    -48.18423598915638,
    -137.63426862489862,
    -260.13891938699373,
    95.5657801365185,
    179.87974998273893,
    -58.05605593973733,
    168.3169767190735,
    9.639332356822845,
    -47.95159563087014,
    136.63057810128794,
    145.37915062688344,
    -28.692117546836734,
    -9.550438856051382,
    0.026532992104466264,
    -0.07895047626920607,
    0.1403501299529745,
    0.1613245649023329,
    17.824488369163138,
    29.761633708539065,
    31.91747277048961,
    84.46124848134431,
    -177.35246055360525,
    -103.23343989986928,
    10.564570947087379,
    59.297869972171775,
    198.07996436765865,
    3.8949380497224486,
    -26.111684756339912,
    -61.5935615077731,
    258.1583428924053,
    130.09247924663393,
    17.317688644642278,
    339.63421395830875,
    -85.26863131440807,
    58.80334071928645,
    156.92474966938076,
    -95.37337798002734,
    -48.4007117964845,
    145.7994311655627,
    -55.71883325997254,
    -32.79375775672465,
    -8.01882570898017,
    -1.751712888769175,
    -0.21378096765728916,
    16.94808761478284,
    12.074028177544864,
    -34.269744571830714,
    -6.168625149710973,
    85.03053405897211,
    -154.94483014845432,
    7.578832198161125,
    -45.088621349769724,
    -38.522024866164905,
    -193.08424493076586,
    102.690429658734,
    67.64664394100477,
    89.24881878892592,
    -29.890432468843688,
    -0.30870375880935047,
    47.20839778274974,
    51.233190409704584,
    -30.34576977925155,
    151.55492382309362,
    107.95321124873576,
    65.05132950424009,
    0.6515925555093176,
    204.35212958283478,
    -132.83035255034224,
    -55.574259963998614,
    -25.964694472562794,
    -13.25124584988561,
    -2.5041518377316003,
    17.918594518362575,
    0.2047593696784631,
    -113.50202840430362,
    -69.31499629761619,
    145.8598776992595,
    -205.67703153428462,
    69.41673952920411,
    -71.89239274249141,
    -181.97363614050028,
    179.40223170757386,
    -145.426957160276,
    33.237336026375644,
    -60.759862905427646,
    135.2303665842421,
    -45.83760238117633,
    82.46550784699713,
    77.52154951095598,
    170.63509058412768,
    26.74427317678138,
    153.79981253355697,
    -125.44703646740375,
    207.4512159723188,
    -101.28508166551934,
    64.41775804887138,
    -121.6534780334937,
    -38.27356185680502,
    -16.607446316853192,
    1.8741837966059762,
    17.97899795385733,
    17.763006792349266,
    -127.42759290630079,
    107.1676603870071,
    -2.7255756395464044,
    119.27114983401567,
    -0.9296268912437533,
    -45.49747007792281,
    -138.1224068582645,
    -100.70623124062607,
    -135.7082798930577,
    -11.184471099104995,
    -102.53501055313811,
    46.06971712795039,
    -45.057178319954275,
    238.93806689408314,
    251.93196009042364,
    -29.278957287892233,
    58.738269016936826,
    21.700452096856264,
    133.47226500770773,
    204.39165801269405,
    -244.03867450715163,
    158.32780615592864,
    -103.28563198082335,
    -120.83543970617816,
    -24.92162413755849,
    -1.3694277186541728,
    17.853959844256536,
    -40.544701828592956,
    -95.1129886186711,
    -77.20179007676104,
    -10.593927212640587,
    89.52393049917666,
    92.71661511750195,
    192.249481960942,
    64.30830995220268,
    -118.35582271468229,
    115.6024304135315,
    -92.12410135916235,
    -94.24182874148718,
    78.13288813110114,
    -124.11149426628562,
    47.529474101591966,
    43.27515686126656,
    94.61363183964939,
    112.17594591779068,
    20.621406453322674,
    85.17193372749321,
    -57.71032424929059,
    19.039304854269112,
    47.276855684669364,
    10.259664093816873,
    -122.05275410935845,
    -15.298665627053971,
    -0.35507765833529265,
    17.806934393706907,
    -55.859584007596624,
    73.84848032273828,
    -172.68265363228934,
    57.1666164775887,
    -92.53514203292464,
    -9.348914055064089,
    30.053707564981664,
    26.239075896994496,
    23.804443837593613,
    -141.2121533681831,
    70.09312146339387,
    -9.16090493924105,
    -120.23751937083206,
    -93.45413364423678,
    56.13616868925001,
    101.19522486502864,
    66.77495129061565,
    67.88492283373063,
    106.74419988934297,
    126.5526019453054,
    -31.628623194649368,
    105.91762229222242,
    13.797337710679896,
    32.024878397184054,
    -31.24887539378068,
    -15.233704584357175,
    0.14319940567207531,
    17.880335911640053,
    -68.47867673005256,
    86.2502134380567,
    -258.42821671488605,
    67.65440695766354,
    -4.4295085294251555,
    31.399533534119318,
    162.17674642052947,
    -28.434485765056614,
    36.4213599743335,
    -43.2915096450069,
    74.62025210413171,
    71.7471227050118,
    -453.4182411274657,
    -25.720508087049094,
    -63.56034772920197,
    116.14217569600538,
    -51.21168012825028,
    201.70956831088205,
    16.084092546922978,
    8.65152962163104,
    59.66351244440505,
    48.08281884835553,
    82.14036447445979,
    87.44954331612263,
    43.34607641550269,
    -5.138085599445752,
    -0.19757361369429166,
    17.793561118676138,
    -67.49077477174694,
    15.686441123345901,
    -24.17911569137886,
    -39.374242352959605,
    95.44122125897876,
    -29.233334191596924,
    83.90431372208079,
    -86.91833114547254,
    60.42884206801723,
    77.28169378247352,
    -79.5954250007172,
    20.074904932636628,
    -185.74306589884236,
    -290.0805657049139,
    -130.07014915183984,
    -297.2305762414507,
    73.78927117710838,
    -3.685961916695036,
    43.07974151995679,
    -22.589007495499757,
    204.84347808617864,
    109.92769969378305,
    25.55636041359003,
    51.482882088164146,
    67.90183366042825,
    -1.9572756231940707,
    -0.27996575987893235,
    17.8656440916907,
    -65.60690972491687,
    -30.284313072328164,
    14.294821871732278,
    -64.97111464549194,
    88.02825150327585,
    77.22493799188815,
    76.49357470539755,
    32.115094366763635,
    35.211629361774364,
    16.29613921265856,
    142.1826969044315,
    -46.79933233023657,
    -287.13881963616274,
    -65.69623894276535,
    78.07649159220854,
    -66.11350986657885,
    7.660516508205659,
    -118.33875002256745,
    96.85325301770925,
    -138.950546721692,
    -87.29929225044745,
    141.6814748030143,
    -136.61244044319056,
    35.778270348933,
    78.81539297402666,
    -0.349512963437998,
    -0.011923016808605894,
    21.407878429532346,
    -65.49145108099975,
    70.03750385071733,
    35.19762553838355,
    -73.23781260175647,
    22.567209204443877,
    97.32449358499004,
    72.42557677693257,
    145.80460204283057,
    -83.81870666358172,
    73.78737587721507,
    -187.60289839288936,
    87.4611930428427,
    -234.89514198079536,
    -193.99343378947134,
    -136.56872036633652,
    -174.0349309830005,
    -35.61717217387154,
    44.62737619961339,
    -19.53558414815031,
    78.5350971871747,
    -56.00258171208891,
    266.56280589988495,
    -135.27699815294267,
    71.27660787140532,
    83.15834320252493,
    -0.23766254423697983,
    -0.04987224872531958,
    9.431094772498941,
    -48.38251400173745,
    102.11918537664658,
    18.39387448213325,
    -71.21902560682783,
    5.856354381619786,
    22.305909057741488,
    -96.34800272778182,
    174.2382436635792,
    72.60578809830804,
    -97.80269530740279,
    273.89790698676256,
    -135.05615173930818,
    -293.7153455243676,
    -251.72995682614723,
    -9.824413415294632,
    -109.03723747888459,
    -145.00737329849866,
    7.570377150984638,
    55.49368254933618,
    98.65391969368969,
    -58.60410628887123,
    160.00783727210066,
    56.82891035279924,
    0.47915749077973746,
    20.787257218217057,
    -0.017528180275628517,
    0.1618396828873754,
    -32.43671034384852,
    -17.962279917531706,
    127.84060749092961,
    72.92933303584414,
    -234.56758563403835,
    298.8339674848782,
    -7.205399069729835,
    64.16360393596221,
    -18.47904014171165,
    104.06799609639398,
    -44.34341941363189,
    165.27887851941975,
    -152.82768953873753,
    -267.21136799161854,
    -30.76557865379556,
    -100.49003388677959,
    -125.6915397517111,
    -111.26594453107032,
    -80.39359689236004,
    -19.987660260453953,
    -38.74668789272565,
    41.07814813899106,
    -267.42941579712664,
    -4.267339458468091,
    -71.06167949151437,
    -26.123358321764293,
    -0.6245719202438214,
    -0.09414982862766996,
    -46.83868053890572,
    -26.790908770452514,
    147.84123132651757,
    -24.95681717528483,
    -89.05901524717075,
    104.89187065643839,
    73.00228260878674,
    56.82613671705514,
    -47.38154510099277,
    -125.93121065824745,
    61.6116257961535,
    101.56228532920679,
    -147.2280475471215,
    -193.08421613143474,
    -145.10399886951188,
    22.778665128843205,
    -2.5185369269600852,
    10.08038142583194,
    -45.00578387363555,
    90.14426477013284,
    25.316591144749882,
    -0.7912286096148783,
    121.43734302110573,
    35.1783873181091,
    -15.959493290620635,
    -31.910186518036365,
    -0.7945470468999577,
    1.754762404858319,
    -52.74104447207477,
    -49.42103318263477,
    121.95995339134572,
    52.74665193835264,
    -131.64280839566536,
    9.486358909662421,
    -43.789291033679966,
    100.69935285109075,
    -9.207226612605727,
    158.14311247994505,
    54.614211373954284,
    86.24955191193294,
    -231.2140877220096,
    -78.29438462734825,
    -99.27481934533907,
    -86.7939961713562,
    -143.95837938927144,
    -46.46734420923446,
    -24.038058264411262,
    -104.60450385049033,
    -9.285007068616304,
    -112.46243491544595,
    63.39705305095425,
    -55.36615361497963,
    14.920811715621799,
    -35.07385414500086,
    -2.8125216367314083,
    -1.6893171337777846,
    -23.37635546466477,
    -52.380354816995705,
    22.866108438414358,
    -24.016140455881352,
    1.7974231161664973,
    -115.22255366469675,
    246.27083530925648,
    -88.8488332583369,
    -11.743412689953708,
    -8.993447438167419,
    15.407863884934596,
    85.07243635336177,
    -9.39944876180657,
    27.299194674835675,
    102.21132520317461,
    -117.93958247285141,
    40.75132121050538,
    -4.152666955986634,
    -70.98973958989954,
    -61.43207074430269,
    161.06866648249726,
    -39.79079249504563,
    -31.685977132566087,
    -127.04616848859781,
    86.47774151788484,
    -5.578972991491872,
    -0.21884510751297823,
    0.06740984725145194,
    0.053618169070385996,
    -50.55409815972719,
    -14.311507155505357,
    -152.26290687640864,
    -31.49616822596972,
    -92.53535676738089,
    66.86421783894129,
    -3.927260950265829,
    -225.447707565463,
    95.98112493908968,
    182.98591469844402,
    -249.62135085259553,
    172.4889506487394,
    -108.44854206586297,
    13.142696358187466,
    -185.9513747160239,
    -132.2287034996724,
    10.825480900154881,
    -163.8131943329143,
    112.19308707998326,
    -113.38210854042028,
    51.3522806972098,
    -102.24337215174381,
    13.459420124303529,
    -53.546864759284894,
    -3.4928247203018374,
    -0.04975148113415387,
    -0.07979218075098755,
    -0.07276237782538854,
    -35.93542518922837,
    -68.00610473559173,
    -29.54679205368572,
    -95.16527851606928,
    100.5710538771776,
    -21.138012186897384,
    -88.5090084731347,
    10.231517567707076,
    14.238346047826116,
    -71.3035244871125,
    -33.21385154917868,
    119.53128686408071,
    97.19986479518835,
    -58.13100998978087,
    -134.7899251250555,
    3.948226174283683,
    104.3522020933663,
    -137.62754428064684,
    -201.69205122664917,
    -18.228723825845933,
    -8.70871245905118,
    -10.173984554465207,
    -15.733499513522109,
    -49.72231112595138,
    -54.25893681860388,
    2.376382520962262,
    -0.02181027077942392,
    0.0814162730913634,
    -0.05220335392880064,
    -31.698142332208953,
    -66.98042687908467,
    -14.080502453646426,
    -97.41329766811918,
    160.58228611400696,
    -135.96487476887356,
    -188.73576361561032,
    105.32709045865177,
    100.41710400300916,
    12.867650948091411,
    -16.184367450508898,
    -7.981611744767214,
    -152.41675211458914,
    4.72376759718003,
    -252.26420791820064,
    4.294378550946584,
    -85.96629465167645,
    -180.18381342150624,
    0.07936323015791448,
    -73.61479629998291,
    -174.29666197141574,
    43.52997058101496,
    -100.82862442443269,
    -52.13016329519905,
    0.09704852786579707,
    0.06302476856516329,
    0.005583441123098054,
    0.13863138584353318,
    -0.20562126385787244,
    -25.549925029999443,
    -71.49939583370784,
    12.4005160441201,
    -106.51448103966469,
    89.34884719949535,
    18.211381242114268,
    180.22282509004694,
    133.40814342961622,
    -56.14617469023823,
    8.097232869979498,
    98.71101318252921,
    77.68001524806928,
    -7.992757364675723,
    21.870665170425028,
    -3.7465428874033093,
    -33.45073704652603,
    -128.6516627204626,
    -7.383308455983472,
    -4.086796144869114,
    -18.620197126910107,
    -117.98150866656812,
    -49.69205774583499,
    0.10836930498073438,
    -0.04616570912217943,
    0.14237568619137794,
    0.14038948303170998,
    0.11112675700120223,
    -1.9837930002097286,
    -20.739911782552362,
    -37.45704262288082,
    -59.16056510453438,
    70.65565830979831,
    -17.147394366837826,
    -34.746492135702226,
    112.85622088812467,
    -111.26030336951148,
    14.363111268930371,
    44.31226969801839,
    69.55059433418309,
    -40.79126904696299,
    -85.64364460689325,
    -103.02546845922102,
    1.3319617644902413,
    -43.328649104521226,
    -98.71623797482545,
    81.09796752098865,
    -42.359401754970946,
    -133.17363489582695,
    -21.040489397520886,
    -3.4593940837389283,
    -1.0695846178579844,
    0.15076051512717312,
    0.17838159233246328,
    0.14383379722078604,
    0.1765656670168251,
    -0.02979348259279066,
    0.04014015380620574,
    -18.856360521003328,
    -30.387439906721927,
    -64.62304831828332,
    -199.72813960029563,
    -250.393369910669,
    -157.21402157986415,
    -158.01696985738369,
    -76.06284463188234,
    71.2296008389848,
    -30.600140953373653,
    -101.58861604856502,
    -142.2228577940856,
    -43.187422193027636,
    45.28494775595495,
    80.33326769932208,
    35.96415179166733,
    -101.1066400988924,
    -75.13284778375545,
    -58.19592262803021,
    -8.534832035182216,
    -0.6380984026519285,
    -0.08467035630229702,
    0.17224591299304995,
    -0.0380485481393932,
    -0.017113790207604535,
    0.03562986370477039,
    0.06634830916289691,
    0.09215716164661686,
    -8.051638811934287,
    -27.500611996398742,
    -46.155908948125706,
    -71.09850956832479,
    -98.31565882604069,
    -121.41033189460916,
    -121.55896622236573,
    -118.2133152270383,
    -84.24641399483018,
    -124.1377790100698,
    -117.92713007637914,
    -107.93046592610773,
    -107.19279524206111,
    -87.48643314508709,
    -77.15132986607799,
    -59.052674804420214,
    -49.72238671901055,
    -49.411540086410355,
    -14.198568754925903,
    -3.436765279712468,
    -0.07902230077825309,
    0.16154702419896974,
    0.1077135767025875,
    0.13333917645037863,
    -0.02463780542118879,
    0.1357975888886167,
    0.08971309975382663,
    0.05853011436407948,
    0.13888312775248482,
    -3.0952166207960468,
    -6.131565757712622,
    -4.147991225853552,
    -3.388642961634386,
    -4.572694405969502,
    -1.3213143585035998,
    -2.4059388272460653,
    -7.092660605782428,
    -9.799032330717388,
    -15.028031544273146,
    -18.251156763319578,
    -63.15053701901039,
    -152.62579232111634,
    -3.3870021143181863,
    -1.3867371377330757,
    -0.8867419570329439,
    -3.723652024063137,
    -10.610374316024078,
    -2.3249566236799315,
    0.1989566064562794,
    0.0956193512705599,
    0.050717461027331906,
    -0.08731497475374238
  ],
  "bias": -869.0117345166915
}